tree
version=v3
num_class=1
num_tree_per_iteration=1
label_index=0
max_feature_idx=1456
objective=binary sigmoid:1
feature_names=Column_0 Column_1 Column_2 Column_3 Column_4 Column_5 Column_6 Column_7 Column_8 Column_9 Column_10 Column_11 Column_12 Column_13 Column_14 Column_15 Column_16 Column_17 Column_18 Column_19 Column_20 Column_21 Column_22 Column_23 Column_24 Column_25 Column_26 Column_27 Column_28 Column_29 Column_30 Column_31 Column_32 Column_33 Column_34 Column_35 Column_36 Column_37 Column_38 Column_39 Column_40 Column_41 Column_42 Column_43 Column_44 Column_45 Column_46 Column_47 Column_48 Column_49 Column_50 Column_51 Column_52 Column_53 Column_54 Column_55 Column_56 Column_57 Column_58 Column_59 Column_60 Column_61 Column_62 Column_63 Column_64 Column_65 Column_66 Column_67 Column_68 Column_69 Column_70 Column_71 Column_72 Column_73 Column_74 Column_75 Column_76 Column_77 Column_78 Column_79 Column_80 Column_81 Column_82 Column_83 Column_84 Column_85 Column_86 Column_87 Column_88 Column_89 Column_90 Column_91 Column_92 Column_93 Column_94 Column_95 Column_96 Column_97 Column_98 Column_99 Column_100 Column_101 Column_102 Column_103 Column_104 Column_105 Column_106 Column_107 Column_108 Column_109 Column_110 Column_111 Column_112 Column_113 Column_114 Column_115 Column_116 Column_117 Column_118 Column_119 Column_120 Column_121 Column_122 Column_123 Column_124 Column_125 Column_126 Column_127 Column_128 Column_129 Column_130 Column_131 Column_132 Column_133 Column_134 Column_135 Column_136 Column_137 Column_138 Column_139 Column_140 Column_141 Column_142 Column_143 Column_144 Column_145 Column_146 Column_147 Column_148 Column_149 Column_150 Column_151 Column_152 Column_153 Column_154 Column_155 Column_156 Column_157 Column_158 Column_159 Column_160 Column_161 Column_162 Column_163 Column_164 Column_165 Column_166 Column_167 Column_168 Column_169 Column_170 Column_171 Column_172 Column_173 Column_174 Column_175 Column_176 Column_177 Column_178 Column_179 Column_180 Column_181 Column_182 Column_183 Column_184 Column_185 Column_186 Column_187 Column_188 Column_189 Column_190 Column_191 Column_192 Column_193 Column_194 Column_195 Column_196 Column_197 Column_198 Column_199 Column_200 Column_201 Column_202 Column_203 Column_204 Column_205 Column_206 Column_207 Column_208 Column_209 Column_210 Column_211 Column_212 Column_213 Column_214 Column_215 Column_216 Column_217 Column_218 Column_219 Column_220 Column_221 Column_222 Column_223 Column_224 Column_225 Column_226 Column_227 Column_228 Column_229 Column_230 Column_231 Column_232 Column_233 Column_234 Column_235 Column_236 Column_237 Column_238 Column_239 Column_240 Column_241 Column_242 Column_243 Column_244 Column_245 Column_246 Column_247 Column_248 Column_249 Column_250 Column_251 Column_252 Column_253 Column_254 Column_255 Column_256 Column_257 Column_258 Column_259 Column_260 Column_261 Column_262 Column_263 Column_264 Column_265 Column_266 Column_267 Column_268 Column_269 Column_270 Column_271 Column_272 Column_273 Column_274 Column_275 Column_276 Column_277 Column_278 Column_279 Column_280 Column_281 Column_282 Column_283 Column_284 Column_285 Column_286 Column_287 Column_288 Column_289 Column_290 Column_291 Column_292 Column_293 Column_294 Column_295 Column_296 Column_297 Column_298 Column_299 Column_300 Column_301 Column_302 Column_303 Column_304 Column_305 Column_306 Column_307 Column_308 Column_309 Column_310 Column_311 Column_312 Column_313 Column_314 Column_315 Column_316 Column_317 Column_318 Column_319 Column_320 Column_321 Column_322 Column_323 Column_324 Column_325 Column_326 Column_327 Column_328 Column_329 Column_330 Column_331 Column_332 Column_333 Column_334 Column_335 Column_336 Column_337 Column_338 Column_339 Column_340 Column_341 Column_342 Column_343 Column_344 Column_345 Column_346 Column_347 Column_348 Column_349 Column_350 Column_351 Column_352 Column_353 Column_354 Column_355 Column_356 Column_357 Column_358 Column_359 Column_360 Column_361 Column_362 Column_363 Column_364 Column_365 Column_366 Column_367 Column_368 Column_369 Column_370 Column_371 Column_372 Column_373 Column_374 Column_375 Column_376 Column_377 Column_378 Column_379 Column_380 Column_381 Column_382 Column_383 Column_384 Column_385 Column_386 Column_387 Column_388 Column_389 Column_390 Column_391 Column_392 Column_393 Column_394 Column_395 Column_396 Column_397 Column_398 Column_399 Column_400 Column_401 Column_402 Column_403 Column_404 Column_405 Column_406 Column_407 Column_408 Column_409 Column_410 Column_411 Column_412 Column_413 Column_414 Column_415 Column_416 Column_417 Column_418 Column_419 Column_420 Column_421 Column_422 Column_423 Column_424 Column_425 Column_426 Column_427 Column_428 Column_429 Column_430 Column_431 Column_432 Column_433 Column_434 Column_435 Column_436 Column_437 Column_438 Column_439 Column_440 Column_441 Column_442 Column_443 Column_444 Column_445 Column_446 Column_447 Column_448 Column_449 Column_450 Column_451 Column_452 Column_453 Column_454 Column_455 Column_456 Column_457 Column_458 Column_459 Column_460 Column_461 Column_462 Column_463 Column_464 Column_465 Column_466 Column_467 Column_468 Column_469 Column_470 Column_471 Column_472 Column_473 Column_474 Column_475 Column_476 Column_477 Column_478 Column_479 Column_480 Column_481 Column_482 Column_483 Column_484 Column_485 Column_486 Column_487 Column_488 Column_489 Column_490 Column_491 Column_492 Column_493 Column_494 Column_495 Column_496 Column_497 Column_498 Column_499 Column_500 Column_501 Column_502 Column_503 Column_504 Column_505 Column_506 Column_507 Column_508 Column_509 Column_510 Column_511 Column_512 Column_513 Column_514 Column_515 Column_516 Column_517 Column_518 Column_519 Column_520 Column_521 Column_522 Column_523 Column_524 Column_525 Column_526 Column_527 Column_528 Column_529 Column_530 Column_531 Column_532 Column_533 Column_534 Column_535 Column_536 Column_537 Column_538 Column_539 Column_540 Column_541 Column_542 Column_543 Column_544 Column_545 Column_546 Column_547 Column_548 Column_549 Column_550 Column_551 Column_552 Column_553 Column_554 Column_555 Column_556 Column_557 Column_558 Column_559 Column_560 Column_561 Column_562 Column_563 Column_564 Column_565 Column_566 Column_567 Column_568 Column_569 Column_570 Column_571 Column_572 Column_573 Column_574 Column_575 Column_576 Column_577 Column_578 Column_579 Column_580 Column_581 Column_582 Column_583 Column_584 Column_585 Column_586 Column_587 Column_588 Column_589 Column_590 Column_591 Column_592 Column_593 Column_594 Column_595 Column_596 Column_597 Column_598 Column_599 Column_600 Column_601 Column_602 Column_603 Column_604 Column_605 Column_606 Column_607 Column_608 Column_609 Column_610 Column_611 Column_612 Column_613 Column_614 Column_615 Column_616 Column_617 Column_618 Column_619 Column_620 Column_621 Column_622 Column_623 Column_624 Column_625 Column_626 Column_627 Column_628 Column_629 Column_630 Column_631 Column_632 Column_633 Column_634 Column_635 Column_636 Column_637 Column_638 Column_639 Column_640 Column_641 Column_642 Column_643 Column_644 Column_645 Column_646 Column_647 Column_648 Column_649 Column_650 Column_651 Column_652 Column_653 Column_654 Column_655 Column_656 Column_657 Column_658 Column_659 Column_660 Column_661 Column_662 Column_663 Column_664 Column_665 Column_666 Column_667 Column_668 Column_669 Column_670 Column_671 Column_672 Column_673 Column_674 Column_675 Column_676 Column_677 Column_678 Column_679 Column_680 Column_681 Column_682 Column_683 Column_684 Column_685 Column_686 Column_687 Column_688 Column_689 Column_690 Column_691 Column_692 Column_693 Column_694 Column_695 Column_696 Column_697 Column_698 Column_699 Column_700 Column_701 Column_702 Column_703 Column_704 Column_705 Column_706 Column_707 Column_708 Column_709 Column_710 Column_711 Column_712 Column_713 Column_714 Column_715 Column_716 Column_717 Column_718 Column_719 Column_720 Column_721 Column_722 Column_723 Column_724 Column_725 Column_726 Column_727 Column_728 Column_729 Column_730 Column_731 Column_732 Column_733 Column_734 Column_735 Column_736 Column_737 Column_738 Column_739 Column_740 Column_741 Column_742 Column_743 Column_744 Column_745 Column_746 Column_747 Column_748 Column_749 Column_750 Column_751 Column_752 Column_753 Column_754 Column_755 Column_756 Column_757 Column_758 Column_759 Column_760 Column_761 Column_762 Column_763 Column_764 Column_765 Column_766 Column_767 Column_768 Column_769 Column_770 Column_771 Column_772 Column_773 Column_774 Column_775 Column_776 Column_777 Column_778 Column_779 Column_780 Column_781 Column_782 Column_783 Column_784 Column_785 Column_786 Column_787 Column_788 Column_789 Column_790 Column_791 Column_792 Column_793 Column_794 Column_795 Column_796 Column_797 Column_798 Column_799 Column_800 Column_801 Column_802 Column_803 Column_804 Column_805 Column_806 Column_807 Column_808 Column_809 Column_810 Column_811 Column_812 Column_813 Column_814 Column_815 Column_816 Column_817 Column_818 Column_819 Column_820 Column_821 Column_822 Column_823 Column_824 Column_825 Column_826 Column_827 Column_828 Column_829 Column_830 Column_831 Column_832 Column_833 Column_834 Column_835 Column_836 Column_837 Column_838 Column_839 Column_840 Column_841 Column_842 Column_843 Column_844 Column_845 Column_846 Column_847 Column_848 Column_849 Column_850 Column_851 Column_852 Column_853 Column_854 Column_855 Column_856 Column_857 Column_858 Column_859 Column_860 Column_861 Column_862 Column_863 Column_864 Column_865 Column_866 Column_867 Column_868 Column_869 Column_870 Column_871 Column_872 Column_873 Column_874 Column_875 Column_876 Column_877 Column_878 Column_879 Column_880 Column_881 Column_882 Column_883 Column_884 Column_885 Column_886 Column_887 Column_888 Column_889 Column_890 Column_891 Column_892 Column_893 Column_894 Column_895 Column_896 Column_897 Column_898 Column_899 Column_900 Column_901 Column_902 Column_903 Column_904 Column_905 Column_906 Column_907 Column_908 Column_909 Column_910 Column_911 Column_912 Column_913 Column_914 Column_915 Column_916 Column_917 Column_918 Column_919 Column_920 Column_921 Column_922 Column_923 Column_924 Column_925 Column_926 Column_927 Column_928 Column_929 Column_930 Column_931 Column_932 Column_933 Column_934 Column_935 Column_936 Column_937 Column_938 Column_939 Column_940 Column_941 Column_942 Column_943 Column_944 Column_945 Column_946 Column_947 Column_948 Column_949 Column_950 Column_951 Column_952 Column_953 Column_954 Column_955 Column_956 Column_957 Column_958 Column_959 Column_960 Column_961 Column_962 Column_963 Column_964 Column_965 Column_966 Column_967 Column_968 Column_969 Column_970 Column_971 Column_972 Column_973 Column_974 Column_975 Column_976 Column_977 Column_978 Column_979 Column_980 Column_981 Column_982 Column_983 Column_984 Column_985 Column_986 Column_987 Column_988 Column_989 Column_990 Column_991 Column_992 Column_993 Column_994 Column_995 Column_996 Column_997 Column_998 Column_999 Column_1000 Column_1001 Column_1002 Column_1003 Column_1004 Column_1005 Column_1006 Column_1007 Column_1008 Column_1009 Column_1010 Column_1011 Column_1012 Column_1013 Column_1014 Column_1015 Column_1016 Column_1017 Column_1018 Column_1019 Column_1020 Column_1021 Column_1022 Column_1023 Column_1024 Column_1025 Column_1026 Column_1027 Column_1028 Column_1029 Column_1030 Column_1031 Column_1032 Column_1033 Column_1034 Column_1035 Column_1036 Column_1037 Column_1038 Column_1039 Column_1040 Column_1041 Column_1042 Column_1043 Column_1044 Column_1045 Column_1046 Column_1047 Column_1048 Column_1049 Column_1050 Column_1051 Column_1052 Column_1053 Column_1054 Column_1055 Column_1056 Column_1057 Column_1058 Column_1059 Column_1060 Column_1061 Column_1062 Column_1063 Column_1064 Column_1065 Column_1066 Column_1067 Column_1068 Column_1069 Column_1070 Column_1071 Column_1072 Column_1073 Column_1074 Column_1075 Column_1076 Column_1077 Column_1078 Column_1079 Column_1080 Column_1081 Column_1082 Column_1083 Column_1084 Column_1085 Column_1086 Column_1087 Column_1088 Column_1089 Column_1090 Column_1091 Column_1092 Column_1093 Column_1094 Column_1095 Column_1096 Column_1097 Column_1098 Column_1099 Column_1100 Column_1101 Column_1102 Column_1103 Column_1104 Column_1105 Column_1106 Column_1107 Column_1108 Column_1109 Column_1110 Column_1111 Column_1112 Column_1113 Column_1114 Column_1115 Column_1116 Column_1117 Column_1118 Column_1119 Column_1120 Column_1121 Column_1122 Column_1123 Column_1124 Column_1125 Column_1126 Column_1127 Column_1128 Column_1129 Column_1130 Column_1131 Column_1132 Column_1133 Column_1134 Column_1135 Column_1136 Column_1137 Column_1138 Column_1139 Column_1140 Column_1141 Column_1142 Column_1143 Column_1144 Column_1145 Column_1146 Column_1147 Column_1148 Column_1149 Column_1150 Column_1151 Column_1152 Column_1153 Column_1154 Column_1155 Column_1156 Column_1157 Column_1158 Column_1159 Column_1160 Column_1161 Column_1162 Column_1163 Column_1164 Column_1165 Column_1166 Column_1167 Column_1168 Column_1169 Column_1170 Column_1171 Column_1172 Column_1173 Column_1174 Column_1175 Column_1176 Column_1177 Column_1178 Column_1179 Column_1180 Column_1181 Column_1182 Column_1183 Column_1184 Column_1185 Column_1186 Column_1187 Column_1188 Column_1189 Column_1190 Column_1191 Column_1192 Column_1193 Column_1194 Column_1195 Column_1196 Column_1197 Column_1198 Column_1199 Column_1200 Column_1201 Column_1202 Column_1203 Column_1204 Column_1205 Column_1206 Column_1207 Column_1208 Column_1209 Column_1210 Column_1211 Column_1212 Column_1213 Column_1214 Column_1215 Column_1216 Column_1217 Column_1218 Column_1219 Column_1220 Column_1221 Column_1222 Column_1223 Column_1224 Column_1225 Column_1226 Column_1227 Column_1228 Column_1229 Column_1230 Column_1231 Column_1232 Column_1233 Column_1234 Column_1235 Column_1236 Column_1237 Column_1238 Column_1239 Column_1240 Column_1241 Column_1242 Column_1243 Column_1244 Column_1245 Column_1246 Column_1247 Column_1248 Column_1249 Column_1250 Column_1251 Column_1252 Column_1253 Column_1254 Column_1255 Column_1256 Column_1257 Column_1258 Column_1259 Column_1260 Column_1261 Column_1262 Column_1263 Column_1264 Column_1265 Column_1266 Column_1267 Column_1268 Column_1269 Column_1270 Column_1271 Column_1272 Column_1273 Column_1274 Column_1275 Column_1276 Column_1277 Column_1278 Column_1279 Column_1280 Column_1281 Column_1282 Column_1283 Column_1284 Column_1285 Column_1286 Column_1287 Column_1288 Column_1289 Column_1290 Column_1291 Column_1292 Column_1293 Column_1294 Column_1295 Column_1296 Column_1297 Column_1298 Column_1299 Column_1300 Column_1301 Column_1302 Column_1303 Column_1304 Column_1305 Column_1306 Column_1307 Column_1308 Column_1309 Column_1310 Column_1311 Column_1312 Column_1313 Column_1314 Column_1315 Column_1316 Column_1317 Column_1318 Column_1319 Column_1320 Column_1321 Column_1322 Column_1323 Column_1324 Column_1325 Column_1326 Column_1327 Column_1328 Column_1329 Column_1330 Column_1331 Column_1332 Column_1333 Column_1334 Column_1335 Column_1336 Column_1337 Column_1338 Column_1339 Column_1340 Column_1341 Column_1342 Column_1343 Column_1344 Column_1345 Column_1346 Column_1347 Column_1348 Column_1349 Column_1350 Column_1351 Column_1352 Column_1353 Column_1354 Column_1355 Column_1356 Column_1357 Column_1358 Column_1359 Column_1360 Column_1361 Column_1362 Column_1363 Column_1364 Column_1365 Column_1366 Column_1367 Column_1368 Column_1369 Column_1370 Column_1371 Column_1372 Column_1373 Column_1374 Column_1375 Column_1376 Column_1377 Column_1378 Column_1379 Column_1380 Column_1381 Column_1382 Column_1383 Column_1384 Column_1385 Column_1386 Column_1387 Column_1388 Column_1389 Column_1390 Column_1391 Column_1392 Column_1393 Column_1394 Column_1395 Column_1396 Column_1397 Column_1398 Column_1399 Column_1400 Column_1401 Column_1402 Column_1403 Column_1404 Column_1405 Column_1406 Column_1407 Column_1408 Column_1409 Column_1410 Column_1411 Column_1412 Column_1413 Column_1414 Column_1415 Column_1416 Column_1417 Column_1418 Column_1419 Column_1420 Column_1421 Column_1422 Column_1423 Column_1424 Column_1425 Column_1426 Column_1427 Column_1428 Column_1429 Column_1430 Column_1431 Column_1432 Column_1433 Column_1434 Column_1435 Column_1436 Column_1437 Column_1438 Column_1439 Column_1440 Column_1441 Column_1442 Column_1443 Column_1444 Column_1445 Column_1446 Column_1447 Column_1448 Column_1449 Column_1450 Column_1451 Column_1452 Column_1453 Column_1454 Column_1455 Column_1456
feature_infos=[-0.32229999999999998:0.4163] [0:0.24334] [-0.59791000000000005:0.70184999999999997] [-0.60138000000000003:0.70184999999999997] [-0.62073999999999996:0.70228999999999997] none none none [-0.38268999999999997:0.16123999999999999] [-0.56786000000000003:0.68310000000000004] [-0.54022999999999999:0.74631999999999998] [-0.49923000000000001:0.15009] [-0.57233999999999996:0.68310000000000004] [-0.59791000000000005:0.74460000000000004] [-0.49923000000000001:0.15040999999999999] [-0.59406000000000003:0.78696999999999995] [-0.60651999999999995:0.75126000000000004] none none none none none none none none none none none none none [-0.23147000000000001:0.23118] [-0.26168999999999998:0.26846999999999999] none [-0.25852999999999998:0.23218] [-0.54466999999999999:0.13420000000000001] none none none [-0.26168999999999998:0.16095000000000001] [-0.54523999999999995:0.45571] [-0.52769999999999995:0.69494999999999996] [-0.40655999999999998:0.15598999999999999] [-0.55659999999999998:0.45696999999999999] [-0.61385000000000001:0.78696999999999995] [-0.24507000000000001:0.17441000000000001] [-0.23196:0.16383] [-0.25341999999999998:0.17313999999999999] [-0.49923000000000001:0.18717] [-0.58199000000000001:0.45638000000000001] [-0.56516:0.69494999999999996] [-0.50095000000000001:0.18991] [-0.60138000000000003:0.63802999999999999] [-0.62073999999999996:0.78696999999999995] none none none none none none none none none none none none none none none none none none none none none none none none none none none none none none none none none none none none none none none none none none none [-0.24707999999999999:0.22533] [-0.56050999999999995:0.27627000000000002] none none none none none none [-0.14463000000000001:0.12622] [-0.093850000000000003:0.12551000000000001] [-0.24518999999999999:0.15257999999999999] none none none none none none none none none none none none none [-0.49086999999999997:0.24052000000000001] [-0.53210999999999997:0.69581000000000004] none [-0.41400999999999999:0.23347999999999999] [-0.56272999999999995:0.68659999999999999] none none none [-0.10024:0.18636] [-0.23401:0.64232999999999996] [-0.56516:0.68325999999999998] [-0.50095000000000001:0.16921] [-0.58199000000000001:0.63695999999999997] [-0.59989000000000003:0.73448000000000002] none none none none none none none none none none none none [0:0.16391] [-0.48415999999999998:0.24052000000000001] [-0.56530999999999998:0.69496999999999998] [-0.50095000000000001:0.17551] [-0.57262999999999997:0.32147999999999999] [-0.62073999999999996:0.73365999999999998] [0:0.16855000000000001] none none [-0.41333999999999999:0.18378] [-0.59733999999999998:0.64702999999999999] [-0.60138000000000003:0.73936000000000002] [-0.49086000000000002:0.18301999999999999] [-0.60138000000000003:0.63802999999999999] [-0.62073999999999996:0.74217999999999995] none none none none none none none none none none none none none none none none none none none none none none none none none none none none none none none none none none none none none none none none none none none none none none none none none none none none none none none none none none none none none none none none none none none none none none none none none none none none none none none none none none none none none none none none none none none none none none none none none none none none none none none none none none none none none none none none none none none none none none none none none none none none none none none none none none none none none none [-0.50253999999999999:0.51432999999999995] none none none none none none none none none none none none none none none none none none none none none none none none none none none none none none none none none none none none none none none none none none none none none none none none none none none none none none none none none none none none none none none none none none none none none none [-0.4113:0.32552999999999999] [-0.38246999999999998:0.69159000000000004] none none none none none none [-0.41608000000000001:0.15598999999999999] [-0.43497000000000002:0.15598999999999999] [-0.55359000000000003:0.73880000000000001] none none none none none none none none none none none none none [-0.56191999999999998:0.13833999999999999] [-0.56530999999999998:0.50522] none [-0.55452000000000001:0.31236000000000003] [-0.59989000000000003:0.62075999999999998] none none none [0:0.15679999999999999] [-0.56281999999999999:0.32985999999999999] [-0.59343999999999997:0.68103000000000002] [-0.48765999999999998:0.18991] [-0.60138000000000003:0.63802999999999999] [-0.62073999999999996:0.73514000000000002] none none none none none none none none none none none none none none none none none none none none none none none none none none none none none none none none none none none none none none none none none none none [-0.24721000000000001:0.12778999999999999] [-0.52769999999999995:0.52298999999999995] none none none none [-0.091840000000000005:0.16372] [-0.51446999999999998:0.23793] [-0.48560999999999999:0.14443] [-0.52842999999999996:0.50200999999999996] [-0.54928999999999994:0.73765000000000003] none none none none none none none none none none none none none [-0.56786000000000003:0.23258000000000001] [-0.53320000000000001:0.27062999999999998] [-0.50095000000000001:0.13211999999999999] [-0.57128999999999996:0.24224999999999999] [-0.55327999999999999:0.74012999999999995] none none none [-0.49923000000000001:0.16391] [-0.59791000000000005:0.45321] [-0.59791000000000005:0.68096999999999996] [-0.49086000000000002:0.16999] [-0.57030999999999998:0.50200999999999996] [-0.59728999999999999:0.64376] none none none none none none none none none none none none none none none none none none none none none none none none none none none none none none none none none none none none none none none none none none none none none none none none none none none none none none none none none none none none none none none none none none none none none none none none none none none none none none none none none none none none none none none none none none none none none none none none none none none none none none none none none none none none none none none none none none none none none none none none none none none none none none none none none none none none none none none none none none none none none none none none none none none none none none none none none none none none none none none none none none none none none none none none none none none none none none none none none none none none none none none none none none none none none none none none none none none none none none none none none none none none none none none none none none none none none none none none none none none none none none none none none none none none none none none none none none none none none none none none none none none none none none none none none none none none none none none none none none none none none none none none none none none none none none none none none none none none none none none none none none none none none none none none none none none none none none none none none none none none none none none none none none none none none none none none none none none none none none none none none none none none none none none none none none none none none none none none none none none none none none none none none none none none none none none none none none none none none none none none none none none none none none none none none none none none none none none none none none none none none none none none none none none none none none none none none none none none none none none none none none none none none none none none none none none none none none none none none none none none none none none none none none none none none none none none none none none none none none none none none none none none none none none none none none none none none none none none none none none none none none none none none none none none none none none none none none none none none none none none none none none none none none none none none none none none none none none none none none none none none none none none none none none none none none none none none none none none none none none none none none none none none none none none none none none none none none none none none none none none none none none none none none none none none none none none none none none none none none none none none none none none none none none none none none none none none none none none none none none none none none none none none none none none none none none none none none none none none none none none none none none none none none none none none none none none none none none none none none none none none none none none none none none none none none none none none none none none none none none none none none none none none none none [-0.53271999999999997:0.73448000000000002] none none none none none none none none none none none none none none none none none none none none none none none none none none none none none none none none none none none none none none none none none none none [-0.41971999999999998:0.10714] [-0.42385:0.27243000000000001] none none none none [-0.093619999999999995:0.10352] [-0.53271999999999997:0.23871000000000001] [-0.48560999999999999:0.14443] [-0.53285000000000005:0.50200999999999996] [-0.52844000000000002:0.51349999999999996] none none none none none none none none none none none none none [-0.23147000000000001:0.21589] [-0.40643000000000001:0.27062999999999998] none [-0.56942999999999999:0.21612999999999999] [-0.54249999999999998:0.27231] none none none [-0.49923000000000001:0.15679999999999999] [-0.59791000000000005:0.45321] [-0.59791000000000005:0.68103000000000002] [-0.49086000000000002:0.16999] [-0.57826999999999995:0.62885000000000002] [-0.60107999999999995:0.73060000000000003] none none none none none none none none none none none none none none none none none none none none none none none none none none none none none none none none none none none none none none none none none none none none none none none none none none none none none none none none none none none none none none none none none none none none none none none none none none none none none none none none none none none none none none none none none none none none none none none none none none none none none none none none none none none none none none none none none none none none none none none none none none none none none none none none none none none none [-0.40389000000000003:0.12076000000000001] none [-0.54781999999999997:0.73562000000000005] none none none none none none none none none none none none none none none none [-0.10496999999999999:0.13547999999999999] [-0.23796999999999999:0.27506999999999998] none none none none [-0.45956999999999998:0.21589] [-0.24612999999999999:0.27589999999999998] [-0.50095000000000001:0.14752999999999999] [-0.5323:0.63575999999999999] [-0.57099999999999995:0.72880999999999996] none none none none none none none none none none none none none none none none none none none none none none none none none none none none none none none none none none none none none none none none none none none [-0.22874:0.22733999999999999] [-0.50814000000000004:0.43242000000000003] none none none none [-0.10982:0.45544000000000001] [-0.44535000000000002:0.62148000000000003] [-0.24314:0.16611999999999999] [-0.56735999999999998:0.45696999999999999] [-0.51127999999999996:0.63268000000000002] none none none none none none none none none none none none none [-0.49086999999999997:0.22656000000000001] [-0.4037:0.27589999999999998] none [-0.47356999999999999:0.19152] [-0.56272999999999995:0.74012999999999995] none none none [-0.49923000000000001:0.14646000000000001] [-0.45956999999999998:0.15040000000000001] [-0.29710999999999999:0.41628999999999999] [-0.49086000000000002:0.16855000000000001] [-0.57274999999999998:0.16449] [-0.55806999999999995:0.68593000000000004]
tree_sizes=2655 2531 2771 2330 2656 2723 2551 3325 3197 3329 3609 3625 3430 3628 3642 2694 3182 2242 2157 2565 2452 2268 2989 1734 2160 3254 1719 2046 1813 2483 2467 1510 1959 2158 2036 2244 1950 1618 2022 2265 1727 2497 1517 1322 1947 1418 2344 1955 2142 1528 2468 2065 1528 1310 3295 3430 2478 2243 1836 1728 1936 2065 2344 2174 1743 1917 2374 2035 3335 1539 1310 2045 1832 1732 2586 2152 2998 1516 1622 1623 1185 2048 2814 2369 3452 1619 2440 3120 2493 1757 1310 2912 1212 2921 1558 2286 1959 1445 2186 1220 2935 1113 1433 2165 1320 2500 2573 2281 3557 2939 1556 1853 1664 3362 1633 1559 1986 1667 2375 1992 1431 1098 3154 2197 1972 1860 2394 1434 2088 1655 2623 1338 2057 2845 1972 1223 2189 1639 1434 1975 1442 1551 1218 2095 2015 1879 1426 1325 1548 1235 1223 2193 2429 2413 2190 2099 2223 1983 3068 2844 1740 1548 3709 1886 2084 2217 1969 2880 1986 1677 2014 1539 1337 3620 2415 1437 1241 1963 1116 3208 2664 2538 1328 2536 2218 1336 2197 3443 1897 3194 2104 1984 2832 2013 2004 1452 1787 1566 1904 1895 2777 1671 1770 1905 2554 1789 2525 2011 1012 1559 1989 1886 1446 1360 2223 1560 1678 1573 1779 1456 2018 1795 1338 2012 1909 2222 2684 2049 2004 1682 1335 1913 1213 1566 1551 1919 3791 2232 1903 2356 3793 2126 2478 1675 1685 2216 3225 1015 2118 1796 1571 1578 1464 1575 2926 2606 2326 1367 1701 1247 1340 1816 1667 1344 1920 1128 2787 1820 2118 1797 1572 1269 2559 1816 1475 2922 2143 2358 1905 2809 1463 1454 2496 3139 1821 1808 1601 2826 1798 3054 2603 2039 2280 1593 1931 2244 1457 1608 1381 1927 2600 1917 1578 1915 1363 2282 2607 2616 2243 2718 1699 2595 2167 1487 2620 1729 1834 1369 2844 2054 2382 1575 1724 1785 1259 2026 1493 1470 1485 2156 2697 2284 1144 1367 1273 1360 2381 2254 1491 1715 1605 1473 2265 1157 1144 1828 1142 2050 1158 1390 1274 1846 1501 1493 1382 1372 1370 1591 1714 1384 1271 1819 1699 1272 1704 1133 1600 1592 1697 1388 1359 1268 1589 1243 1379 1474 1355 1517 1285 1390 1499 1370 1404 1278 1430 1368 1500 1031 1273 1057 1370 1260 1386 1181 1260 1399 1284 1132 1124 1178 1162 1288 1055 1145 1152 1136 1154 1051 1029 1138 1039 1259 1032 1133 1098 1169 1165 1053 1158 1050 1267 1260 1009 1151 1052 1055 1124 1166 1170 1052 1035 1161 1021 1010 1171 1046 1054 1054 1029 941 1038 919 1019 1037 942 925 1022 936 942 828 1008 1054 897 1042 1037 1021 1066 928 937 934 938 900 933 1061 1046 944 822 926 930 824 937 793 808 943 924 897 928 821 907 793 924 813 924 920 823 792 823 943 934 821 826 823 818 823 789 691 816 819 820 827 803 816 815 835 824 808 805 926 829 825 931 709 911 827 825 802 805 825 808 831 810 832 825 808 819 823 779 831 801 798 797 812 808 820 817 798 712 805 688 809 703 695 572 702 671 717 715 803 831 703 691 808 826 810 800 712 796 802 571 705 822 694 579 701 682 714 575 711 718 832 701 827 664 713 809 779 710 692 707 718 836 713 704 694 705 693 698 703 703 703 785 585 713 798 831 712 670 702 713 700 794 682 688 658 716 785 594 689 596 827 718 701 671 597 575 697 711 594 684 686 711 689 694 679 574 692 594 593 600 717 703 593 695 554 595 692 686 671 712 683 695 704 710 682 686 711 711 703 589 596 596 584 692 596 712 553 598 714 704 691 714 693 695 572 711 710 710 679 584 697 592 577 710 595 713 693 713 689 685 685 690 597 594 575 580 596 575 595 681 596 575 694 596 597 588 594 577 692 683 587 661 574 591 692 715 579 581 589 596 577 595 600 476 597 598 594 598 597 599 712 596 566 576 590 595 579 599 574 600 597 598 579 579 708 669 566 702 597 594 574 576 578 593 562 598 589 595 586 598 596 597 582 594 596 566 596 600 596 598 591 593 469 586 584 575 577 593 564 598 460 484 595 589 588 481 573 482 574 555 596 595 574 570 560 575 480 566 589 598 480 553 585 580 595 593 577 585 595 576 713 597 577 596 604 573 586 595 578 596 579 599 481 568 554 584 463 480 583 598 479 595 601 562 573 575 578 597 475 586 585 597 470 586 599 597 479 595 579 571 599 467 466 443 592 592 480 573 569 585 597 482 596 477 590 562 600 554 579 577 589 573 559 586 483 578 577 597 576 578 577 480 575 480 478 602 597 472 483 576 580 578 581 600 597 576 482 599 589 484 602 479 598 484 568 580 466 598 578 574 580 592 483 480 595 476 600 570 580 565 474 462 576 463 595 558 482 483 481 484 480 592 481 482 483 594 447 448 588 602 449 567 586 460 577 598 598 589 567 469 461 466 450 590 574 596 479 470 485 455 597 479 586 579 478 570 578 481 560 580 575 479 479 458 477 482 479 460 460 579 460 460 478 579 458 591 581 480 560 602 573 598 573 481 480 464 481 462 592 458 463 460 480 577 462 486 479 463 563 453 479 461 483 566 470 464 466 483 557 484 602 485 603 484 462 473 463 480 481 482 481 581 482 485 481 477 472 459 473 474 480 593 590 478 479 588 580 579 488 471 588 465 470 473 475 478 470 582 473 601 579 485 473 485 452 463 482 457 458 482 481 482 480 470 600 482 481 481 483 482 484 481 464 484 484 460 599 483 576 466 577 481 483 603 481 465 483 481 460 489 481 482 487 579 463 484 481 600 564 459 479 468 481 461 478 484 460 483 464 458 487 481 484 580 481 483 487 481 447 580 481 485 479 483 479 485 483 482 584 482 472 480 485 484 486 465 483 488 486 484 485 461 586 466 589 482 479 480 461 482 479 480 485 458 459 460 460 459 483 464 461 484 563 484 466 463 584 486 466 486 581 480 482 481 459 463 483 463 487 484 462 463 484 463 485 483 604 483 570 463 462 482 464 485 473 483 465 481 462 481 485 461 481 462 483 460 460 483 482 451 481 482 481 475 473 471 470 474 475 464 486 475 461 485 486 459 459 599 463 463 487 482 460 473 482 461 474 462 485 479 464 482 480 465 483 475 482 485 488 468 469 483 480 467 465 463 462 461 481 466 484 465 472 464 473 469 486 470 487 462 464 466 488 460 482 461 484 459 461 461 458 459 485 459 486 484 486 482 483 485 464 485 448 482 482 481 483 478 480 481 446 479 481 482 464 463 469 464 466 461 450 479 483 488 470 473 475 347 476 484 484 484 482 482 482 481 484 479 480 484 471 484 454 464 483 484 463 482 488 483 462 367 482 460 368 484 484 481 347 481 465 460 463 461 482 453 461 448 365 484 469 458 481 459 462 482 462 462 465 483 465 467 469 465 472 465 465 462 364 463 460 457 457 485 460 462 463 462 463 459 462 463 483 461 482 464 482 462 485 367 368 451 481 462 463 464 368 365 369 463 462 483 464 483 466 460 482 460 463 484 465 466 484 346 486 483 483 437 460 443 482 461 368 484 486 450 484 450 486 448 486 365 367 367 368 367 485 458 461 462 463 483 461 483 478 465 465 486 487 464 465 465 482 464 480 480 483 460 485 485 467 486 466 462 464 485 482 465 460 465 460 465 485 485 463 366 467 450 450 483 368 367 368 483 365 483 462 486 481 462 482 461 484 483 467 368 481 474 447 474 464 466 467 483 462 462 463 365 482 482 481 368 481 480 464 370 479 369 469 462 484 482 465 459 463 483 482 460 465 366 484 485 484 462 461 369 481 483 462 485 365 463 462 366 452 464 482 461 369 465 486 366 480 464 369 467 464 484 484 366 485 366 484 461 461 463 466 465 483 463 482 482 474 483 482 473 345 474 345 445 464 366 484 470 481 485 485 345 368 367 485 368 368 463 463 466 458 370 370 465 463 465 453 368 465 364 484 364 461 369 488 366 461 465 463 363 463 459 461 463 464 489 463 461 484 463 462 482 463 485 461 464 463 463 487 366 367 366 366 368 367 365 459 484 365 487 466 485 463 366 482 465 484 463 475 367 486 469 468 462 461 485 463 465 465 464 485 462 466 464 464 459 438 473 475 475 460 463 448 366 365 461 366 464 463 466 367 368 451 461 462 451 450 461 468 461 458 463 461 462 467 460 460 465 485 484 464 364 481 363 484 366 483 485 465 485 464 367 465 345 345 486 442 346 442 483 486 465 485 484 488 483 365 467 365 484 467 462 464 464 463 451 448 463 461 462 465 465 367 462 451 452 366 486 367 455 485 483 483 369 364 461 464 461 467 460 463 466 471 485 472 472 486 481 474 483 465 485 483 367 463 368 368 367 367 485 484 483 485 464 465 367 368 465 365 366 367 364 362 365 465 364 367 464 463 489 467 473 487 463 368 465 489 367 368 473 460 476 369 463 460 485 365 486 469 366 466 365 366 485 365 487 365 365 368 462 486 481 481 466 461 483 483 465 460 484 462 368 463 484 480 461 459 483 480 468 366 469 363 367 366 367 367 366 367 364 365 366 483 484 368 485 364 459 483 466 471 463 463 472 463 344 473 468 478 476 466 367 486 461 365 366 461 476 476 462 461 474 475 462 486 366 464 367 480 462 476 347 445 440 486 462 463 463 464 483 486 466 365 365 367 365 367 366 346 344 365 366 365 482 483 461 368 452 463 465 485 485 484 367 485 464 368 363 463 369 366 463 367 367 367 462 368 365 463 466 449 485 472 465 464 488 366 366 464 462 367 485 367 487 368 485 364 365 484 365 366 367 448 448 457 485 463 364 463 485 464 459 485 461 467 367 483 368 481 463 367 463 368 462 464 465 367 368 366 366 467 468 467 469 483 466 464 464 367 483 486 483 484 345 466 476 366 365 364 466 368 467 467 452 468 367 367 463 365 368 367 487 463 354 465 366 365 365 365 485 365 364 366 345 475 369 473 366 367 463 474 464 487 366 367 355 462 365 366 463 369 364 365 363 365 365 365 366 363 464 365 366 366 468 365 366 483 367 489 484 461 366 458 365 474 368 368 369 368 367 368 477 366 365 463 369 475 369 369 365 366 368 369 463 462 467 365 366 464 460 367 369 362 368 469 367 466 368 467 464 369 486 343 342 464 466 368 367 368 465 483 468 364 462 463 461 462 486 463 345 463 347 463 482 475 366 365 365 368 368 463 460 462 461 365 464 365 486 478 476 367 368 466 462 347 442 475 463 471 367 462 366 366 464 368 365 365 463 461 462 464 463 461 485 368 367 369 463 465 460 369 464 370 484 367 486 483 367 368 364 367 366 369 366 369 452 368 370 368 463 367 348 466 463 465 363 467 472 472 486 367 367 369 365 367 368 369 370 369 366 366 368 475 368 369 365 365 462 472 366 366 368 486 369 367 465 464 345 349 478 346 346 477 461 343 367 465 462 461 347 371 370 344 369 345 367 462 466 454 369 355 462 487 490 465 368 464 369 367 365 368 367 463 464 364 367 365 364 362 345 473 346 368 368 462 367 367 369 367 368 369 332 349 349 349 352 488 366 366 367 463 465 368 368 332 368 369 366 476 350 344 346 370 369 369 366 483 463 487 465 367 476 348 475 474 473 368 366 368 364 370 367 368 348 347 334 349 350 347 345 348 368 366 370 369 343 345 345 371 368 365 366 369 369 368 367 369 345 348 347 348 346 345 364 366 367 366 370 366 346 463 347 368 347 368 369 364 365 363 367 368 366 367 368 368 486 463 347 344 347 344 370 370 370 467 370 369 467 468 345 369 349 349 368 366 368 368 365 370 369 371 368 368 368 366 369 366 370 368 462 371 451 366 333 330 347 347 332 457 347 475 349 466 367 368 347 369 370 368 369 369 453 368 465 369 369 368 366 462 464 366 464 366 365 482 466 461 470 461 348 366 368 367 367 484 366 368 347 366 370 371 480 462 464 369 484 482 465 467 466 366 484 468 343 366 364 365 365 365 366 366 467 486 370 366 346 474 477 344 344 455 464 365 366 367 486 365 364 367 463 369 464 367 349 368 367 370 367 366 366 365 346 346 369 369 462 464 442 347 344 473 362 364 366 365 369 365 368 368 368 368 367 367 368 467 364 366 465 363 366 364 369 363 368 369 365 366 368 363 362 368 365 366 369 365 369 367 365 366 363 365 364 370 364 366 368 467 368 369 362 367 361 367 463 365 484 484 369 465 466 466 369 367 366 365 354 367 367 464 465 366 365 365 366 464 367 367 367 368 462 465 363 366 365 369 365 366 367 371 367 367 367 365 368 368 486 366 367 367 366 367 367 369 368 365 369 366 366 369 367 471 462 368 368 366 368 369 367 367 369 369 466 462 466 485 366 370 367 365 364 365 365 362 364 364 364 365 366 450 366 367 464 465 465 366 371 364 369 368 368 370 466 348 349 347 345 345 367 365 367 366 367 368 483 463 363 366 364 367 347 344 367 344 343 367 368 368 364 368 368 368 365 367 367 367 370 368 363 365 471 464 470 369 347 346 348 348 348 346 370 368 370 347 349 368 333 347 368 348 354 369 372 368 369 368 365 369 371 465 369 456 368 370 342 345 367 366 370 367 368 485 466 464 461 482 345 345 345 345 345 366 365 368 367 369 367 367 365 363 467 365 367 366 346 346 369 345 346 345 367 368 365 367 370 369 370 368 367 369 369 485 366 354 367 354 355 367 369 367 365 367 367 368 464 352 365 464 352 368 368 367 345 369 369 369 346 347 347 366 368 367 346 347 369 368 366 369 363 365 366 365 370 367 367 371 368 371 366 368 365 348 346 367 368 367 368 365 368 365 368 369 347 368 368 465 369 366 367 369 369 367 367 368 365 367 367 365 368 365 369 367 367 368 370 370 349 345 367 347 369 369 366 365 369 367 370 367 367 365 365 367 365 366 367 367 365 367 366 366 366 367 366 366 370 369 371 352 368 371 368 368 368 369 370 367 368 368 368 482 367 365 369 366 368 484 367 368 367 367 369 370 368 465 371 469 366 370 365 368 368 367 346 345 346 349 348 479 367 368 367 368 369 368 366 346 368 367 369 346 366 369 367 366 368 366 367 367 368 369 368 368 364 364 368 365 367 354 367 368 366 368 366 368 366 368 355 367 363 364 346 369 349 352 367 353 366 365 370 367 362 366 364 365 367 367 366 365 363 365 363 365 366 371 369 366 366 356 367 370 367 370 369 369 367 367 365 368 364 370 353 367 366 366 363 368 368 369 366 366 366 368 366 368 348 345 348 345 342 346 345 344 364 365 365 354 473 368 465 465 368 368 367 363 367 365 353 365 346 347 346 365 369 363 367 366 346 367 350 349 353 354 350 354 354 354 333 346 464 463 348 349 364 364 365 366 366 366 367 368 370 366 354 370 366 464 369 369 367 466 368 345 364 369 366 368 368 365 366 365 366 368 365 362 369 365 369 467 368 369 366 367 368 367 367 369 366 367 370 366 347 365 367 367 350 367 348 348 348 369 368 369 370 369 370 365 368 370 368 368 368 368 369 370 370 363 370 370 366 370 366 366 370 466 368 370 366 369 370 370 367 368 347 368 368 366 368 365 453 355 346 347 345 333 369 365 364 370 365 369 349 365 371 363 369 364 344 365 365 370 366 368 367 368 368 368 367 368 369 365 368 369 366 364 367 354 367 354 367 368 366 365 350 367 367 366 353 368 365 355 354 370 464 464 370 369 467 370 365 366 367 370 367 366 368 368 367 366 368 369 368 469 369 368 367 369 368 367 365 368 365 368 345 347 345 344 369 369 367 367 368 367 366 370 367 368 369 366 367 371 365 366 367 364 368 365 368 369 370 371 367 370 366 367 367 366 367 368 368 370 365 365 365 366 366 367 370 365 366 366 348 346 455 348 457 477 365 364 366 365 366 367 368 368 366 369 369 368 350 349 350 368 372 365 365 365 369 369 369 366 368 369 368 367 367 369 362 370 363 365 370 365 366 347 367 365 367 367 349 348 349 349 346 369 365 365 367 367 366 370 366 365 366 369 369 368 364 372 370 365 364 370 366 368 370 364 367 369 368 365 367 368 366 369 366 367 368 368 368 368 364 362 355 367 357 367 354 368 366 369 368 356 364 364 370 370 366 371 347 346 347 345 334 348 366 369 366 367 367 367 366 370 365 366 366 366 369 367 366 368 367 367 367 366 366 366 366 365 347 345 349 371 367 371 364 365 368 366 366 368 369 367 365 369 369 367 347 345 345 365 366 363 348 350 348 350 335 369 363 353 365 367 367 364 367 369 367 369 369 365 369 370 369 368 355 370 366 366 367 369 366 368 345 365 347 367 348 348 367 368 354 369 366 351 347 369 362 367 368 366 368 370 365 370 365 370 366 369 367 367 369 367 346 348 367 366 370 367 367 368 366 367 369 369 371 369 369 367 368 365 365 346 365 366 369 366 346 347 346 347 369 368 365 367 367 368 367 369 365 367 366 369 366 368 370 369 369 370 369 371 348 349 350 348 350 365 368 369 370 368 368 366 367 367 368 367 366 367 364 365 365 364 365 368 365 368 366 367 365 367 348 370 346 347 348 348 347 344 343 344 364 365 370 368 368 369 364 366 368 368 368 371 367 369 366 366 365 367 367 368 369 368 365 369 366 366 365 366 371 368 365 366 342 367 367 369 366 365 368 369 368 365 369 370 366 367 367 368 355 369 364 367 369 365 368 354 369 366 370 366 365 366 368 366 366 367 367 368 366 367 367 367 367 367 350 365 367 364 367 367 366 364 367 366 367 369 368 369 369 369 367 369 345 344 349 348 349 342 366 366 368 369 365 367 366 367 367 368 367 371 368 366 366 366 369 366 353 353 352 350 367 353 363 366 365 371 365 367 368 365 365 368 368 368 346 369 347 370 333 369 366 368 366 365 368 368 346 348 367 369 364 367 367 366 366 368 368 367 365 369 367 366 367 370 368 369 367 366 368 370 365 369 365 371 368 369 367 369 364 366 368 365 365 368 366 364 366 366 368 366 369 368 362 367 365 365 350 366 365 366 366 368 367 369 366 370 365 367 365 366 363 368 365 370 363 368 367 365 353 365 366 352 366 353 366 367 367 366 367 366 347 347 347 368 369 347 369 366 371 365 369 371 366 365 367 368 366 365 332 347 364 364 364 366 365 365 365 368 368 364 369 364 369 366 367 367 347 366 365 367 369 366 366 366 367 364 367 366 369 366 366 365 367 370 369 370 369 369 369 368 367 368 369 366 370 370 344 370 369 366 369 368 362 367 333 344 345 350 343 369 344 344 370 354 368 368 367 366 367 365 365 354 366 368 372 368 370 370 367 371 365 367 368 368 347 370 367 369 368 365 365 366 366 369 344 364 365 364 354 365 348 367 368 368 370 369 353 366 366 353 368 353 349 370 368 367 369 368 344 334 349 332 334 335 349 344 367 367 371 367 347 349 348 349 347 346 367 367 368 368 367 370 366 366 365 365 368 368 366 369 344 346 344 347 367 368 368 367 369 368 332 334 351 355 351 355 348 347 348 346 348 368 346 348 346 346 345 347 369 368 368 345 371 346 365 368 369 368 368 367 372 367 367 369 370 370 347 366 369 368 368 367 353 366 368 367 368 355 348 348 348 344 370 370 366 348 346 345 348 346 345 345 346 347 367 345 366 368 366 369 370 369 364 368 366 368 366 368 349 347 366 365 364 367 345 347 342 347 346 347 365 365 365 366 365 366 349 345 349 350 348 348 365 367 370 367 368 367 369 369 366 368 369 348 366 348 368 345 368 368 345 369 346 346 369 349 365 364 367 355 369 369 369 369 366 367 368 368 368 369 367 367 369 369 367 369 369 371 369 370 352 351 354 367 351 367 368 368 366 366 368 365 366 371 370 367 365 368 346 345 348 348 346 347 354 369 354 369 370 369 333 366 366 348 365 365 365 366 365 370 366 366 364 346 370 369 366 370 366 366 366 366 367 366 368 365 365 349 366 366 367 370 368 371 367 368 365 366 366 370 368 368 365 366 369 365 369 368 367 367 368 366 369 369 369 369 364 364 369 365 347 347 347 345 348 349 368 369 369 371 365 368 366 347 366 368 365 368 369 366 367 368 368 368 367 365 355 353 367 355 344 348 344 349 345 348 367 368 370 367 368 366 365 365 366 364 368 366 365 364 368 367 365 367 345 370 367 369 367 354 368 367 368 370 365 367 367 367 364 354 366 366 344 344 345 367 368 365 367 368 368 369 368 368 348 364 366 365 365 347 365 366 365 366 366 370 365 366 366 366 369 365 366 346 367 365 367 367 366 369 367 369 367 367 349 364 366 365 366 364 344 346 349 347 347 368 368 366 346 368 366 370 371 368 371 369 365 365 366 369 364 367 367 367 368 364 365 367 364 370 348 350 367 367 367 366 346 346 346 346 345 369 365 365 366 369 367 367 334 367 367 367 369 365 367 369 331 367 367 367 368 369 366 365 367 367 344 345 367 367 350 368 368 367 367 369 369 368 366 367 367 368 365 369 368 367 347 369 367 348 347 346 346 345 348 348 344 344 365 365 368 364 368 370 367 371 371 368 347 368 366 369 368 369 365 368 367 369 366 369 366 367 368 366 367 367 370 367 370 368 367 370 366 369 370 370 366 366 367 366 366 369 367 365 364 365 365 366 351 366 344 331 345 345 365 367 366 366 365 366 369 367 362 365 367 365 369 365 365 365 365 365 366 365 366 366 366 367 366 369 369 366 366 367 366 366 347 348 347 348 342 344 346 369 335 370 355 369 348 349 349 349 365 368 344 368 354 367 368 366 366 366 367 370 367 367 369 369 367 370 369 370 368 368 366 367 364 366 366 366 364 367 370 363 347 369 348 370 369 369 371 366 370 364 364 369 348 368 366 368 368 368 365 347 353 366 369 355 345 367 366 368 366 369 348 346 349 349 349 371 339 346 347 346 345 347 368 364 366 367 366 367 345 364 364 347 366 369 365 366 368 370 355 367 366 370 369 366 366 365 356 356 367 369 355 367 369 366 369 366 367 369 369 368 368 368 367 369 350 347 367 370 369 347 349 366 367 367 354 364 345 348 370 368 369 345 365 370 366 367 367 366 363 366 366 364 365 367 370 369 354 371 354 370 367 370 367 370 368 367 367 367 367 365 368 365 366 367 368 366 370 369 347 347 347 347 348 349 366 365 366 368 367 368 368 367 367 368 369 368 347 346 332 347 347 347 363 368 364 368 365 365 344 344 344 344 365 370 368 366 366 367 368 369 346 353 346 345 346 369 346 350 347 346 345 346 366 366 353 366 367 365 369 368 366 366 367 367 348 345 345 347 347 368 365 365 367 368 370 367 370 364 371 365 367 367 371 371 367 365 367 364 347 345 334 348 349 333 345 348 367 369 369 367 349 368 348 368 350 369 345 344 348 368 368 370 345 346 345 346 349 349 365 369 369 365 364 366 366 367 366 368 367 367 367 367 368 369 369 366 346 367 368 369 348 368 346 366 346 366 366 368 369 370 369 351 368 369 370 366 367 368 369 369 366 369 368 367 370 368 370 368 368 368 370 369 369 368 370 370 367 367 366 366 366 366 366 365 367 368 367 366 367 369 367 364 367 366 370 370 366 369 369 366 370 370 345 346 346 347 344 351 365 362 369 369 365 369 369 368 369 368 368 369 348 349 349 349 349 348 347 367 369 369 368 370 348 348 346 367 349 369 368 361 367 369 367 368 346 333 333 368 370 366 367 368 366 367 370 370 367 369 368 369 369 370 344 366 367 365 367 369 346 347 347 348 371 372 369 347 346 347 370 370 348 349 345 350 345 346 348 366 367 368 369 369 368 347 347 347 349 347 367 366 366 367 365 367 368 369 369 367 367 366 345 369 367 368 362 371 349 345 334 346 346 354 344 344 345 346 344 345 366 367 368 368 369 368 369 366 367 368 368 367 349 347 348 345 348 372 344 333 347 345 345 346 367 366 367 369 366 369 368 369 354 366 368 362 367 367 365 367 368 366 365 365 367 365 368 364 367 369 367 368 368 369 364 365 368 367 365 370 345 366 367 370 368 366 366 367 367 367 367 366 367 368 369 367 367 367 368 367 370 334 369 368 365 369 366 369 365 369 355 356 369 369 354 353 365 364 365 366 366 366 369 368 349 348 367 368 365 349 368 368 365 368 368 366 366 369 370 366 346 349 354 355 346 355 366 367 369 367 355 367 370 370 370 370 371 371 345 345 344 347 346 344 369 370 365 367 365 370 345 344 347 344 347 347 365 366 366 370 370 367 366 364 363 371 371 365 349 366 366 366 367 368 371 369 366 368 366 369 344 345 346 346 348 345 366 366 366 366 369 366 370 366 369 367 369 368 366 368 366 368 367 366 365 364 370 368 369 369 365 368 365 366 366 365 365 366 365 367 364 366 346 346 344 344 346 344 364 365 364 365 365 368 367 368 370 369 366 370 363 369 365 370 366 366 332 367 346 368 333 367 346 348 348 349 348 349 366 369 355 366 368 363 347 365 368 366 368 368 370 369 371 369 369 368 370 367 368 370 370 365 370 368 369 369 366 369 370 370 366 366 366 355 347 370 368 369 370 370 369 368 368 368 369 368 346 367 349 366 368 368 351 345 351 349 349 352 369 367 367 370 368 368 365 369 366 369 366 368 369 366 370 365 369 369 368 368 371 368 368 370 369 368 367 368 370 369 345 346 346 368 347 370 346 365 347 345 346 347 366 364 365 367 364 368 344 347 344 368 333 368 350 335 350 335 335 371 363 367 366 365 365 365 369 347 369 367 371 368 369 366 366 365 365 369 371 347 349 347 346 347 365 369 370 366 369 366 367 364 371 367 365 367 365 370 366 369 371 371 367 369 367 364 369 368 368 368 362 370 367 368 366 366 365 366 369 367 345 345 366 366 370 365 347 347 348 347 347 346 369 370 370 367 367 368 370 368 370 370 368 369 345 345 366 365 366 348 346 344 367 366 366 366 366 365 366 367 364 369 368 369 368 369 366 367 366 366 366 366 368 368 368 367 370 370 370 355 337 354 365 365 354 346 370 368 372 370 371 369 370 347 369 369 349 370 369 366 366 368 369 366 369 367 367 367 369 371 367 367 368 369 368 367 346 366 369 366 371 367 347 333 348 348 348 334 346 345 346 346 349 346 365 365 365 367 369 368 365 365 366 366 370 370 369 369 370 370 369 369 345 348 347 348 346 349 363 348 365 348 345 345 368 370 369 370 369 368 368 347 344 345 349 347 346 367 337 368 366 369 369 368 369 369 366 371 366 366 350 350 350 366 354 353 366 355 367 354 365 370 367 366 370 366 368 350 350 369 369 369 368 365 366 370 366 368 366 368 365 367 365 368 365 364 341 344 366 366 366 366 369 367 365 367 346 371 349 370 367 370 367 367 367 369 368 369 366 368 365 367 366 367 347 348 350 347 350 367 369 366 367 367 370 367 366 368 367 366 366 368 365 366 365 366 364 367 367 348 366 366 368 366 365 366 366 364 365 366 368 368 370 370 367 370 367 370 366 367 367 367 370 371 366 365 367 365 368 368 367 370 366 369 348 349 371 372 368 368 365 365 365 367 366 367 354 344 344 365 366 365 363 364 369 366 364 365 367 367 366 367 367 368 346 347 346 347 350 351 345 344 346 345 346 346 370 344 369 368 369 369 369 364 368 366 365 365 370 366 370 366 366 371 371 365 368 368 368 370 370 368 370 368 368 366 355 366 353 354 367 371 369 366 369 366 368 370 367 354 367 344 354 345 370 365 365 365 365 365 346 346 346 349 349 367 347 349 347 348 350 347 367 367 365 370 367 367 366 366 368 365 368 366 366 367 366 369 369 369 355 368 368 357 367 368 366 365 371 368 366 368 348 368 368 365 370 366 369 370 368 370 368 365 367 364 367 366 368 369 368 369 366 367 370 367 344 366 368 367 368 367 368 370 368 369 366 370 348 349 347 348 348 349 367 363 367 368 368 367 365 368 368 368 367 369 347 368 346 367 368 347 352 366 366 366 368 369 368 364 365 368 368 368 347 347 347 348 347 349 368 369 366 367 368 369 348 367 365 368 367 370 346 348 369 344 368 349 367 368 369 370 370 370 345 345 346 348 364 365 366 369 369 368 368 366 369 366 369 366 365 370 349 366 367 369 369 370 348 347 347 369 348 370 368 370 371 371 369 369 366 368 366 367 363 368 368 347 368 368 369 368 367 365 347 366 366 366 368 368 368 369 369 366 367 368 348 368 369 346 368 371 367 367 371 368 346 347 369 369 369 367 368 354 369 367 367 355 368 369 368 369 369 368 365 370 365 367 366 366 367 366 371 371 367 369 363 369 368 366 367 366 347 345 351 345 345 346 366 366 366 367 364 365 366 366 367 368 367 368 366 367 366 364 367 368 369 369 369 368 368 371 367 369 370 371 367 369 346 367 346 368 369 369 366 368 367 370 369 368 348 367 366 367 365 369 367 371 365 366 371 369 348 369 370 370 369 366 365 367 368 368 368 369 368 366 367 369 367 367 369 366 368 367 368 369 365 355 366 367 369 367 366 366 369 366 368 367 345 344 333 346 346 347 349 365 368 368 349 345 346 346 365 366 366 365 367 368 369 368 370 368 348 349 349 348 349 347 369 369 368 370 368 369 369 368 364 369 365 363 368 368 366 367 368 367 367 368 369 367 368 369 364 346 365 346 350 365 371 366 367 370 366 367 366 368 365 366 366 368 367 367 354 368 370 370 370 366 369 370 370 348 370 367 371 365 372 370 349 348 346 369 369 368 344 346 365 343 369 364 367 369 368 371 368 369 368 368 356 368 369 357 348 347 346 371 370 371 368 369 368 369 370 368 349 365 366 366 367 366 367 365 366 368 366 367 369 369 367 364 369 370 341 346 345 347 346 345 368 368 367 368 368 368 367 365 366 366 369 366 365 368 366 368 367 368 349 345 352 351 356 355 346 351 369 348 369 370 355 367 354 365 355 365 348 348 347 346 347 349 348 347 348 348 348 347 365 363 367 347 367 365 368 365 367 365 367 367 370 365 367 367 367 368 347 346 348 347 346 348 370 365 368 370 365 366 367 368 368 368 367 368 346 347 365 365 365 365 364 369 370 365 366 366 370 369 367 369 370 370 346 350 350 350 349 346 366 368 368 369 367 367 367 368 369 367 367 365 345 348 344 344 345 345 370 368 366 371 367 368 367 368 333 367 347 367 348 367 348 345 346 334 363 365 371 363 371 365 368 367 367 367 366 366 367 370 371 367 367 367 365 367 366 366 368 367 367 365 364 364 366 353 370 365 370 366 370 366 369 369 349 367 369 370 366 367 370 367 367 369 367 348 365 369 368 367 366 367 350 370 366 367 367 356 365 357 367 368 349 349 335 334 335 348 350 350 349 372 372 372 370 364 370 369 367 366 367 362 367 368 367 366 364 366 368 365 368 369 350 348 351 369 350 366 367 364 367 366 367 371 349 345 345 368 349 371 367 367 367 371 368 368 368 369 350 350 368 350 367 368 365 371 370 370 367 367 368 367 368 369 345 349 345 348 346 348 368 368 367 367 367 367 365 367 368 368 367 368 364 367 367 367 367 366 367 365 365 347 368 345 354 369 354 370 355 371 348 369 347 368 345 368 368 368 369 369 370 346 347 367 367 370 346 369 346 345 347 350 348 366 368 368 369 370 369 365 367 369 369 367 367 369 359 366 368 358 348 359 366 370 347 367 367 365 366 366 367 366 369 366 356 370 345 367 357 356 349 350 346 350 347 351 368 367 369 369 366 367 368 369 369 370 369 369 348 348 344 370 371 369 369 369 368 369 367 369 370 369 354 370 355 369 369 367 369 367 366 370 349 366 366 370 366 365 344 347 345 349 370 366 367 367 368 370 371 367 334 334 346 335 346 346 366 367 372 369 366 366 369 367 368 368 368 365 371 370 370 368 371 367 364 370 365 366 366 370 367 365 347 368 368 367 348 333 370 354 354 368 368 366 368 366 371 366 369 350 368 369 367 367 366 367 365 368 366 366 344 368 367 369 370 366 366 366 366 370 366 370 364 363 369 365 367 368 364 363 366 366 367 366 369 370 371 372 371 366 368 370 347 370 369 370 369 367 369 369 370 367 367 367 368 366 367 369 368 368 369 369 369 369 366 367 368 365 364 366 345 334 367 368 368 349 347 348 347 348 347 344 350 346 350 345 349 349 371 371 371 371 371 350 369 367 368 370 369 370 343 344 368 369 364 366 349 347 344 347 351 348 367 367 346 363 348 367 369 366 369 367 369 370 347 347 348 368 347 369 348 347 366 367 368 367 368 368 367 370 366 365 371 369 369 371 366 371 369 370 370 371 371 367 346 371 334 369 369 369 369 370 371 369 367 366 367 369 349 369 369 369 369 348 368 367 368 365 369 370 343 368 367 370 348 348 348 346 369 371 367 367 367 364 368 368 369 367 369 366 367 369 368 371 370 367 368 368 368 369 369 367 369 368 345 348 369 349 369 369 369 367 371 367 370 348 366 367 349 367 366 370 371 369 369 370 370 369 370 370 369 370 370 368 348 369 366 369 367 367 366 366 369 364 370 366 350 348 345 372 351 372 347 346 347 366 366 369 347 372 367 368 348 371 365 366 369 366 368 370 347 347 367 368 369 369 369 370 366 366 366 371 368 368 346 369 367 368 349 350 349 349 349 349 345 343 342 343 346 345 345 368 350 350 369 370 344 345 348 348 344 347 369 370 349 367 348 348 368 369 367 368 369 369 347 368 369 366 366 369 367 371 368 367 369 368 342 344 345 366 367 370 363 368 371 369 371 369 344 334 343 368 369 368 366 366 346 367 370 370 332 342 343 346 345 348 369 371 369 367 369 369 347 347 349 349 348 346 367 349 368 349 366 366 346 345 348 335 349 347 349 349 346 350 347 347 366 368 369 368 368 369 366 366 366 366 369 368 351 348 348 347 350 350 368 367 368 349 349 350 369 346 349 347 347 348 368 367 370 370 367 368 368 350 368 369 369 370 343 346 369 347 368 368 347 366 367 348 334 348 368 368 369 369 369 369 350 347 350 349 348 348 345 345 345 348 347 350 367 367 369 366 366 369 345 347 371 371 368 367 348 347 348 348 343 348 368 368 346 347 368 346 369 369 369 368 346 368 354 368 354 366 368 367 345 365 364 346 365 366 369 371 366 367 367 367 346 348 348 347 347 346 343 349 345 345 345 345 366 351 368 367 369 366 346 348 348 367 368 369 348 347 348 346 348 347 367 368 351 349 369 349 368 369 368 365 368 369 350 368 368 367 369 369 348 346 346 345 369 365 371 367 371 367 372 367 346 345 346 345 350 349 370 367 371 370 370 371 351 368 369 369 369 369 346 366 366 365 366 368 368

Tree=0
num_leaves=24
num_cat=0
split_feature=12 4 49 4 16 43 12 150 4 43 4 11 4 48 43 156 160 12 12 4 403 48 15
split_gain=2867.93 846.401 293.923 170.455 169.419 106.936 85.0097 65.3648 114.982 61.6491 40.4606 66.9383 42.0663 27.8181 26.1211 17.1871 13.4678 7.8102 7.12506 9.17657 5.38355 1.83465 0.325607
threshold=0.080020000000000022 0.29587000000000002 -0.061834999999999994 0.28122000000000008 0.2642250000000001 -0.04890499999999999 0.090865000000000015 0.088690000000000005 -4.9999999999999989e-05 -0.16126999999999997 -0.16251999999999997 1.0000000180025095e-35 0.15278000000000003 0.097025000000000014 -0.080454999999999985 0.089935000000000001 -1.0000000180025095e-35 0.083585000000000007 -1.0000000180025095e-35 0.41548500000000005 -1.0000000180025095e-35 0.08035500000000001 -0.090019999999999989
decision_type=2 2 2 2 2 2 2 2 2 2 2 2 2 2 2 2 2 2 2 2 2 2 2
left_child=3 2 6 4 5 9 14 8 16 -1 11 -4 17 -10 -2 -6 -7 -12 -5 -20 -19 -11 -23
right_child=1 -3 10 18 15 7 -8 -9 13 21 12 -13 -14 -15 -16 -17 -18 20 19 -21 -22 22 -24
leaf_value=-0.97652369198555022 -1.476779418776331 -0.447721557701384 -0.92527281344046397 -0.36620565294384932 -1.1145596280270555 -0.80906144994598572 -0.70401410638748019 -0.51212272295735917 -1.3269146715412663 -0.45080860868937711 -1.4061766284438879 -1.5971161365850473 -1.2147321081870375 -0.88956820540984738 -0.99298311956107921 -1.5092617232090804 -0.58135897673400938 -1.5971206077054763 -0.36620868490736103 -0.54969897362293596 -1.5401705371215699 -0.3662079947048209 -0.39916165966439576
leaf_weight=8.6127861142158491 11.104570657014849 37.202927321195602 11.933706790208818 87.390916645526886 11.076467067003252 17.80438569188118 23.939439058303833 27.710940539836884 19.781473100185398 23.897283673286438 13.996871471405028 12.318404763936995 15.725402712821959 8.4986052513122541 7.7414945960044852 7.6053527891635886 26.310900092124939 106.26677176356316 20.626427531242371 24.239826261997223 187.71229416131973 24.968833327293392 24.540213465690616
leaf_count=34 63 79 45 161 49 60 72 65 102 51 76 75 75 31 31 44 68 647 38 60 1106 46 48
internal_value=-1.34212 -1.36917 -1.45691 -0.57805 -0.695428 -0.635953 -0.956863 -0.77618 -0.877254 -0.464803 -1.51839 -1.26653 -1.53726 -1.19548 -1.27805 -1.27525 -0.673255 -1.55373 -0.399835 -0.465341 -1.56076 -0.404764 -0.382541
internal_weight=0 427.942 390.739 333.064 200.807 182.125 42.7855 100.106 72.3954 82.0191 347.953 24.2521 323.701 28.2801 18.8461 18.6818 44.1153 307.976 132.257 44.8663 293.979 73.4063 49.509
internal_count=3126 2269 2190 857 598 505 166 326 261 179 2024 120 1904 133 94 93 128 1829 259 98 1753 145 94
is_linear=0
shrinkage=1


Tree=1
num_leaves=23
num_cat=0
split_feature=1 0 3 155 159 4 50 49 15 1 1 155 151 1429 15 13 2 2 2 1186 13 0
split_gain=1278.01 173.018 99.2413 86.0121 93.3357 72.3875 55.4364 44.26 34.4042 63.596 31.2456 29.8165 26.2136 23.0405 46.4352 21.8766 21.0124 10.9994 48.3434 8.80559 7.30164 4.76328
threshold=0.09450500000000002 -0.044489999999999995 0.084940000000000015 0.083290000000000017 -1.0000000180025095e-35 -0.49367499999999992 0.097510000000000013 -0.047409999999999994 0.043810000000000009 0.11646500000000001 0.083065000000000014 0.112835 -0.29526499999999994 0.084845000000000018 -0.011369999999999998 -0.083529999999999979 0.10117500000000001 0.090385000000000007 -0.0038999999999999994 0.081240000000000021 -0.095499999999999988 -0.25681499999999996
decision_type=2 2 2 2 2 2 2 2 2 2 2 2 2 2 2 2 2 2 2 2 2 2
left_child=1 2 7 4 6 -3 -2 10 12 -10 15 -5 -6 19 -15 -1 -7 18 -14 20 -9 -19
right_child=3 5 -4 11 8 16 -8 13 9 -11 -12 -13 17 14 -16 -17 -18 21 -20 -21 -22 -23
leaf_value=-0.2673504289050479 0.2983282696986419 -0.085922820980186554 0.24725750121289214 0.27900088971207998 0.15345649303775741 0.53726242677773806 -0.27921793285726415 -0.091627029373069241 -0.10368186013637953 0.47757873180582278 0.33392167284756241 -0.19781859363051266 0.50111949888272944 -0.24782537819708564 0.40735298444673923 0.12284443077517589 0.24147311835671553 0.41510112910388958 0.19534955993763881 -0.02542387514367973 -0.2177397354286186 0.52136666480795502
leaf_weight=11.891300067305563 19.179576560854915 17.543533280491829 27.105642020702362 10.141894131898882 9.7656189203262311 22.284030601382256 10.51840418577194 20.482725292444229 12.073215320706366 21.208332300186157 11.345694348216055 11.369366303086279 110.14724537730217 10.146502271294596 7.8362824171781531 11.603933900594713 17.547272503376007 18.60523784160614 26.153300032019615 11.404885590076445 223.95991213619709 236.20369920134544
leaf_count=69 61 85 80 28 27 42 58 118 66 38 26 72 144 69 26 46 56 29 97 62 1503 324
internal_value=0 -0.0682049 -0.123645 0.422195 0.440522 0.256248 0.0937715 -0.156216 0.464241 0.266719 0.0584058 0.0269845 0.48064 -0.183523 0.037676 -0.0746369 0.406957 0.488809 0.442449 -0.199071 -0.207173 0.513608
internal_weight=0 393.152 335.777 485.366 463.855 57.3748 29.698 308.671 434.157 33.2815 34.8409 21.5113 400.875 273.83 17.9828 23.4952 39.8313 391.109 136.301 255.848 244.443 254.809
internal_count=3126 2182 1999 944 844 183 119 1919 725 104 141 100 621 1778 95 115 98 594 241 1683 1621 353
is_linear=0
shrinkage=0.202172


Tree=2
num_leaves=25
num_cat=0
split_feature=1 12 52 13 49 47 12 43 474 16 16 15 52 0 12 15 16 12 1 403 49 151 12 13
split_gain=753.71 168.229 118.658 79.0146 46.3524 42.7588 43.9489 32.0126 30.9164 15.8724 15.1461 15.1454 10.9563 8.56658 18.8298 8.14254 7.65469 6.31779 20.0405 4.50046 2.0841 1.33259 1.29502 0.879142
threshold=0.099115000000000023 0.080020000000000022 -0.41304999999999997 -0.10899499999999999 -0.081554999999999989 0.08801500000000001 -1.0000000180025095e-35 -0.077584999999999987 0.084655000000000022 -0.069169999999999995 -0.068989999999999982 0.014775000000000002 -1.0000000180025095e-35 -0.059949999999999996 0.10052500000000002 -0.085854999999999987 -0.16129499999999999 0.088365000000000013 0.12968000000000005 0.03138500000000001 -0.099194999999999992 -0.088054999999999981 0.096395000000000022 -0.0010249999999999997
decision_type=2 2 2 2 2 2 2 2 2 2 2 2 2 2 2 2 2 2 2 2 2 2 2 2
left_child=1 7 22 11 -5 17 -7 -1 10 -8 15 -3 -12 16 -15 -9 -6 20 -19 -18 -4 -22 -2 -23
right_child=2 3 5 4 13 6 9 8 -10 -11 12 -13 -14 14 -16 -17 19 18 -20 -21 21 23 -24 -25
leaf_value=0.30243385662469296 -0.2534831256708831 0.29769647349596012 0.32583304695867976 0.12958465243998729 -0.050466312437037426 0.36218038267956454 0.13359259286515021 0.0082876856421871051 0.31706133510290113 -0.16753187586837603 -0.24106857250909419 -0.0058109926991436519 0.026273877347811381 0.10364297740319602 -0.26314146004811595 0.22405389967642531 -0.22270567821259388 0.20253651351661031 0.41471764986281895 -0.14241194791538472 0.42782019399105664 0.39370593719505037 -0.13492313567701264 0.36787382842934035
leaf_weight=42.538381934165955 10.015889532864096 18.717315465211872 21.280395284295082 20.52303022146225 13.235753819346426 31.537367537617683 19.381286382675174 15.897811844944956 17.163084432482719 11.341412574052809 12.726706698536875 10.484055280685423 12.341402933001516 12.115027375519277 10.839401960372923 12.991065517067907 168.97683108597994 32.472416490316391 41.383762404322624 34.33428230881691 36.018942043185234 189.47438099980354 6.0388823002576819 75.367622673511505
leaf_count=83 67 52 34 78 76 48 56 56 46 59 65 58 52 52 70 32 1326 81 53 253 47 235 41 106
internal_value=0 -0.0447027 0.331351 -0.126599 -0.162011 0.350278 0.194529 0.163698 0.0807166 0.0224294 0.00553697 0.188728 -0.10945 -0.186999 -0.0695554 0.105318 -0.199448 0.374765 0.321429 -0.209146 0.386994 0.391319 -0.208891 0.386355
internal_weight=0 402.884 474.312 289.226 260.024 458.258 62.2601 113.658 71.1201 30.7227 53.957 29.2014 25.0681 239.501 22.9544 28.8889 216.547 395.998 73.8562 203.311 322.141 300.861 16.0548 264.842
internal_count=3126 2299 827 1965 1855 719 163 334 251 115 205 110 117 1777 122 88 1655 556 134 1579 422 388 108 341
is_linear=0
shrinkage=0.202172


Tree=3
num_leaves=21
num_cat=0
split_feature=12 4 40 3 52 3 52 3 12 484 43 133 0 48 48 48 3 4 1186 0
split_gain=423.755 170.99 71.6381 52.6164 40.443 38.5986 30.4675 26.0849 28.3439 23.5853 16.8932 12.6773 11.7029 33.7978 11.4466 12.3171 9.41265 7.11122 6.33344 3.78816
threshold=0.080020000000000022 0.15278000000000003 -1.0000000180025095e-35 0.097710000000000005 -0.40306999999999998 -0.097754999999999995 0.029970000000000007 -0.14162499999999997 0.09258000000000001 -0.0048899999999999994 -0.53814999999999991 -0.39935999999999994 -0.195045 0.086515000000000022 0.083775000000000002 0.099800000000000014 0.17646500000000004 -0.073104999999999989 0.085080000000000003 -0.11674999999999998
decision_type=2 2 2 2 2 2 2 2 2 2 2 2 2 2 2 2 2 2 2 2
left_child=4 2 -2 5 -1 7 19 17 -9 -6 -11 -12 13 -13 18 -16 -14 -4 -7 -3
right_child=1 6 3 -5 9 14 -8 8 -10 10 11 12 16 -15 15 -17 -18 -19 -20 -21
leaf_value=-0.18930791645114259 0.33558791780855995 0.22044517582185474 -0.21167257055543451 0.33072070280070515 0.089619278482914316 -0.21036852468129416 0.021711075777120951 0.29685418118529577 -0.10405926069860374 -0.29134602203420573 -0.12140785824918895 0.30679388626922577 0.28012206004118401 -0.010365778785456496 0.042901821781554189 -0.23862830338577948 0.35556857949744586 0.039285007560611464 0.013196453349202567 0.33237706138825668
leaf_weight=8.0693955197930318 14.344996772706507 17.340740129351616 18.301894657313827 9.8474346548318845 28.657116040587425 174.10437417030334 21.865711621940136 17.658481493592266 12.178672440350054 2.1120500266551963 3.1633180156350127 42.435600519180298 274.60564704239368 20.303938701748848 16.927714221179489 10.16663935780525 89.667482122778893 6.1709148734807959 5.3376708179712287 43.047815263271332
leaf_count=47 26 35 139 20 79 1502 81 56 81 10 15 70 464 58 101 88 114 29 38 73
internal_value=0 -0.0305906 -0.104692 -0.128025 0.259386 -0.145343 0.226197 0.00631653 0.133211 0.267241 0.279016 0.281816 0.284803 0.204153 -0.185224 -0.0627351 0.298694 -0.14839 -0.203718 0.300237
internal_weight=0 367.293 285.039 270.694 469.015 260.846 82.2543 54.31 29.8372 460.945 432.288 430.176 427.013 62.7395 206.536 27.0944 364.273 24.4728 179.442 60.3886
internal_count=3126 2269 2080 2054 857 2034 189 305 137 810 731 721 706 128 1729 189 578 168 1540 108
is_linear=0
shrinkage=0.202172


Tree=4
num_leaves=24
num_cat=0
split_feature=1 0 52 159 12 1 1429 2 457 52 0 133 12 151 1 457 15 52 43 1 49 52 0
split_gain=392.979 68.0224 51.7521 35.67 30.3972 29.3077 35.654 26.058 19.2668 17.1645 16.2864 16.0217 13.4564 13.454 8.69602 17.6324 7.21741 12.3775 6.47114 6.01935 4.58224 2.19816 0.0144272
threshold=0.09450500000000002 0.04939000000000001 -0.24600999999999998 -1.0000000180025095e-35 0.023990000000000004 0.076845000000000011 0.084545000000000009 0.090470000000000009 0.084670000000000009 -0.42985499999999993 -0.055219999999999998 -0.39935999999999994 0.095420000000000019 -0.27559499999999998 0.10342000000000001 0.083280000000000007 0.088245000000000004 0.090245000000000006 -0.079074999999999993 0.080270000000000022 0.12073000000000002 0.12439500000000002 0.054560000000000004
decision_type=2 2 2 2 2 2 2 2 2 2 2 2 2 2 2 2 2 2 2 2 2 2 2
left_child=1 5 9 4 -4 8 7 12 10 22 16 -5 19 -13 15 -15 20 -18 -3 -7 -1 -16 -2
right_child=2 18 3 11 -6 6 -8 -9 -10 -11 -12 13 -14 14 21 -17 17 -19 -20 -21 -22 -23 -24
leaf_value=-0.21684405952821831 -0.24227345206210965 0.27666317649905209 0.19674164044075609 -0.1689820748902196 -0.21315418422811894 0.028366037736988117 0.26193567206397644 0.13563938460002264 0.072065551788099924 0.12042798352138251 0.040464303355254361 0.039255509747035296 0.11911040389347596 0.065882720023881292 0.28964308167176944 0.30841294039612582 0.025276654414431044 -0.20335644495728444 0.11252017110220171 -0.18548363721556399 -0.046407097300624679 0.23574356083949147 -0.22779921580382254
leaf_weight=106.89522431790829 6.2696282640099543 18.681332379579544 19.22520419955254 3.4755121171474448 12.017084948718546 6.0577665045857421 16.976136699318886 20.902698189020157 15.855544731020926 10.415894925594328 14.937030851840971 10.336473375558851 8.0175562351942045 23.312537044286728 310.26835764944553 25.827402845025063 16.808240093290806 22.814382135868073 20.692740432918072 48.047594495117664 6.8623040765523902 34.36491134762764 5.5585897490382195
leaf_count=973 50 36 42 17 79 29 36 67 75 34 79 26 43 83 460 36 124 236 58 368 58 59 58
internal_value=0 -0.0586367 0.232021 0.247271 0.0390768 -0.0931425 -0.00503108 -0.0596182 -0.140985 -0.0688204 -0.161055 0.263229 -0.125318 0.266947 0.272924 0.193355 -0.18068 -0.106367 0.190401 -0.161539 -0.206563 0.284269 -0.235477
internal_weight=0 323.549 461.072 438.827 31.2423 284.174 100.002 83.0256 184.173 22.2441 168.317 407.585 62.1229 404.11 393.773 49.1399 153.38 39.6226 39.3741 54.1054 113.758 344.633 11.8282
internal_count=3126 2182 944 802 121 2088 543 507 1545 142 1470 681 440 664 638 119 1391 360 94 397 1031 519 108
is_linear=0
shrinkage=0.202172


Tree=5
num_leaves=25
num_cat=0
split_feature=1 123 3 13 47 15 457 12 130 2 454 1 16 2 12 47 12 1 1 3 3 3 3 2
split_gain=283.367 60.4885 71.0516 45.8531 35.1444 32.1238 29.9237 27.8935 13.0916 12.9571 12.214 11.9836 11.855 10.0539 8.5429 8.0029 5.16672 8.92495 4.3748 0.751683 1.96885 0.136926 0.0585727 0.0570782
threshold=0.10100500000000003 1.0000000180025095e-35 -0.11481999999999999 -0.14863499999999999 0.084155000000000021 0.039295000000000004 0.083995000000000014 -1.0000000180025095e-35 -0.081464999999999996 0.089985000000000023 0.085470000000000004 0.13130500000000003 0.10489000000000002 0.114 0.085515000000000022 0.11603500000000001 0.088365000000000013 0.12789000000000003 0.078385000000000024 0.11439500000000001 0.30835000000000007 -0.082224999999999979 0.40411000000000002 0.10149500000000002
decision_type=2 2 2 2 2 2 2 2 2 2 2 2 2 2 2 2 2 2 2 2 2 2 2 2
left_child=1 2 5 -4 12 14 8 -6 -5 -8 -10 15 16 -14 -1 -9 19 -18 -7 21 -21 -2 -22 -23
right_child=4 -3 3 6 7 18 9 11 10 -11 -12 -13 13 -15 -16 -17 17 -19 -20 20 22 23 -24 -25
leaf_value=0.29451492645819166 0.29319840418552745 0.21698393363951637 0.22460033288013975 0.069503920952861287 0.21742376037197117 -0.027536504396469194 -0.08516581492852629 -0.030353987945649568 -0.1799424889790403 0.19710876774877645 0.14136642900499363 0.1226963888541743 0.0029102620490905964 0.22164357192140988 0.11852696317215816 -0.27816771634826837 0.10943344938417507 0.27926788985521978 -0.25512963337129319 0.2087767008706054 0.28329354922090627 0.27264242044710724 0.27030148501213286 0.28155954093957636
leaf_weight=25.241321794688702 28.170551121234894 34.736109882593155 15.508736759424208 9.6383401378989202 31.18080447614193 7.2644529491662961 12.347994238138201 12.411685064435007 191.44079548120499 14.395240135490893 4.9607640132307997 10.94171019643545 14.137583762407301 21.887073874473572 20.377045094966888 9.3315436169505102 23.544173702597618 27.329926185309887 6.5790341645479202 24.826807305216789 29.253444850444794 54.75231808423996 28.273165643215179 65.163955390453339
leaf_count=46 42 71 38 74 57 45 67 63 1819 41 14 33 75 43 70 53 62 43 49 45 44 86 46 100
internal_value=0 -0.0359136 -0.0644582 -0.111997 0.217466 0.134045 -0.134422 0.0806288 -0.160537 0.0667738 -0.171826 -0.0498693 0.245004 0.135805 0.215905 -0.136711 0.258988 0.200671 -0.135703 0.271863 0.25637 0.280478 0.276909 0.277489
internal_weight=0 342.49 307.754 248.292 381.205 59.4619 232.783 63.8657 206.04 26.7432 196.402 32.6849 317.339 36.0247 45.6184 21.7432 281.314 50.8741 13.8435 230.44 82.3534 148.087 57.5266 119.916
internal_count=3126 2334 2263 2053 792 210 2015 206 1907 108 1833 149 586 118 116 116 468 105 94 363 135 228 90 186
is_linear=0
shrinkage=0.202172


Tree=6
num_leaves=23
num_cat=0
split_feature=1 3 3 52 52 3 48 0 123 12 1 3 151 12 52 12 0 48 12 0 42 11
split_gain=226.752 47.4876 52.9669 34.7191 40.9644 18.1641 13.7261 13.6158 12.8922 10.2194 12.3008 8.7419 8.28503 8.24004 8.01158 6.77282 5.64587 3.45106 3.29089 4.84055 1.82573 0.00516803
threshold=0.09450500000000002 -0.11481999999999999 0.0055300000000000011 0.26430000000000003 -0.32783999999999996 0.11439500000000001 0.12879500000000002 -0.059949999999999996 0.080635000000000012 0.092900000000000024 0.12789000000000003 -0.099894999999999984 0.08357500000000001 0.086095000000000019 -0.42985499999999993 0.090895000000000017 -0.14369499999999999 -0.07965499999999999 -0.0066799999999999993 -0.11273999999999999 -0.033434999999999993 0.085990000000000011
decision_type=2 2 2 2 2 2 2 2 2 2 2 2 2 2 2 2 2 2 2 2 2 2
left_child=1 7 8 4 14 16 9 13 12 17 11 -11 18 -1 21 -5 -4 -6 -3 -20 -19 -2
right_child=3 2 5 15 6 -7 -8 -9 -10 10 -12 -13 -14 -15 -16 -17 -18 20 19 -21 -22 -23
leaf_value=0.12901533492132755 -0.23196075089093715 -0.28431425944258215 0.051644335709076276 0.031396630469148736 0.15130722067983068 0.25561336860812339 0.085820991832177049 0.22332379752447343 0.05139932573646367 0.15409058359874417 0.26194568140285435 -0.062033320489744546 0.025964294093036196 -0.11308105827658776 0.061669232977989909 -0.20844767663880004 -0.11515997978943587 0.18781137797113853 0.022417234579207041 -0.17916597354911457 0.25178637862482978 -0.22198402335052539
leaf_weight=11.567496255040171 6.1721391677856463 11.514691062271593 26.406968519091603 10.13454167917371 16.632145747542381 15.988534286618231 32.512351006269455 25.492432691156864 11.58237900584936 17.956134103238586 21.038360267877579 13.326997973024843 8.3914004117250425 11.418951131403444 6.3631044477224341 9.1629602648317796 12.091656647622587 19.874614231288433 5.0521814823150626 133.83855230361223 221.79454002901912 3.9008745029568672
leaf_count=49 61 67 81 34 35 28 78 57 34 41 37 81 54 76 22 67 53 41 33 1646 398 49
internal_value=0 -0.0599025 -0.0990291 0.181695 0.195873 0.0744796 0.210808 0.121583 -0.154517 0.22389 0.142409 0.0620174 -0.169537 0.00874699 -0.115917 -0.082485 -0.000744206 0.240394 -0.180445 -0.171833 0.246525 -0.228103
internal_weight=0 273.345 224.866 378.869 359.571 54.4872 343.135 48.4789 170.379 310.623 52.3215 31.2831 158.797 22.9864 16.4361 19.2975 38.4986 258.301 150.405 138.891 241.669 10.073
internal_count=3122 2178 1996 944 843 162 711 182 1834 633 159 122 1800 125 132 101 134 474 1746 1679 439 110
is_linear=0
shrinkage=0.202172


Tree=7
num_leaves=30
num_cat=0
split_feature=1 484 403 52 133 403 52 484 52 52 52 52 403 0 1 151 133 4 16 43 43 0 0 43 16 16 4 42 49
split_gain=167.737 40.6516 42.6806 41.3885 26.7318 25.5171 31.5143 18.5226 20.7045 9.74544 7.51719 7.51189 5.95029 5.89701 3.38944 2.62126 2.37298 2.30178 2.12732 0.964559 0.861247 0.524102 0.337112 0.186613 0.1605 0.070247 0.0332031 0.00945516 0.00404703
threshold=0.10100500000000003 -0.0048899999999999994 -1.0000000180025095e-35 0.19121000000000002 -0.10927999999999999 0.095765000000000017 0.0035300000000000006 -1.0000000180025095e-35 -0.32783999999999996 -0.091774999999999982 -0.42985499999999993 0.13742000000000001 0.23963500000000001 -0.18087499999999998 0.08869500000000001 -0.081894999999999982 -0.083689999999999987 -0.04881499999999999 0.053305000000000012 -1.0000000180025095e-35 0.070450000000000013 -0.077054999999999985 -0.078809999999999977 -0.047174999999999988 -0.00040499999999999992 -0.076974999999999988 -0.083829999999999988 0.084380000000000024 -0.0069299999999999995
decision_type=2 2 2 2 2 2 2 2 2 2 2 2 2 2 2 2 2 2 2 2 2 2 2 2 2 2 2 2 2
left_child=1 14 9 4 12 6 -6 -2 10 -3 -9 13 21 -10 19 -11 -15 -18 22 26 24 -4 23 -5 -17 -7 -1 -28 -29
right_child=7 2 3 18 5 25 -8 8 11 15 -12 -13 -14 16 -16 20 17 -19 -20 -21 -22 -23 -24 -25 -26 -27 27 28 -30
leaf_value=-0.24269766199676399 -0.0065311694514271325 0.075522910189819936 -0.2353877438337954 -0.22767881037980164 0.064363584794579751 -0.22662157677410369 0.28993512577553882 -0.22292672293501334 0.13435038417502376 -0.029582765038978536 0.095181566997800671 0.089073249394636844 0.072235169226297372 0.15324917253659401 -0.095051095053098472 -0.22320585277707961 0.1766053712372623 0.23868137483180002 -0.095991349707602841 -0.29946419728487678 -0.11421065079640333 -0.14469424510811338 -0.31461129252715125 -0.2761386545650123 -0.27168687081176229 -0.26392765924718031 -0.23027579910101029 -0.22629611039826625 -0.21747375499615765
leaf_weight=4.8416453041136256 21.305224906653166 5.6817880533635607 11.937923565506935 8.917818661779167 114.41465283557773 5.31692099198699 32.508288040757179 6.2844184823334217 35.634761124849319 3.2176771536469451 5.8743892014026624 22.71233531832695 3.6342171132564536 18.163876868784428 6.7301673814654341 35.823783930391073 28.585651785135269 167.67651268839836 3.9809639081358901 11.588967252522705 2.9815976396203032 3.3360889814794072 3.6266110278666028 5.1391317658126363 3.0401978343725196 3.4257104694843274 6.1191068403422895 3.5140181034803417 8.1504080444574303
leaf_count=54 82 31 142 123 593 71 125 83 82 13 19 69 36 45 46 550 62 347 34 70 28 35 30 39 24 36 79 43 131
internal_value=0 -0.0396419 -0.00871155 0.0340256 0.066734 0.0943067 0.114274 0.175299 0.188895 -0.173983 -0.0692319 0.200401 -0.16026 0.210513 -0.226218 -0.205444 0.22317 0.22964 -0.229537 -0.252018 -0.218965 -0.215583 -0.259598 -0.2454 -0.227 -0.241247 -0.227712 -0.223629 -0.220137
internal_weight=0 287.928 246.983 196.238 174.574 155.666 146.923 306.237 284.932 50.745 12.1588 272.773 18.9082 250.061 40.9443 45.0633 214.426 196.262 21.6645 34.2141 41.8456 15.274 17.6836 14.057 38.864 8.74263 22.6252 17.7835 11.6644
internal_count=3122 2333 1910 1264 1038 825 718 789 707 646 102 605 213 536 423 615 454 409 226 377 602 177 192 162 574 107 307 253 174
is_linear=0
shrinkage=0.202172


Tree=8
num_leaves=29
num_cat=0
split_feature=1 15 3 13 1 51 3 157 13 3 147 3 13 13 1 42 151 43 42 13 43 13 49 43 1 40 3 1
split_gain=124.366 31.4372 30.3645 34.8691 20.0189 16.8854 16.1225 15.5714 13.7809 13.4811 13.284 18.6575 10.7553 9.85801 7.95214 7.91787 7.70093 5.76128 5.70283 19.3056 4.70844 4.66939 2.72493 1.43396 2.52832 0.818862 0.817098 0.228364
threshold=0.09450500000000002 0.069820000000000007 -0.11481999999999999 -0.4714549999999999 0.11026000000000001 -0.41122499999999995 -0.029809999999999996 -0.080299999999999996 -1.0000000180025095e-35 -0.077754999999999977 1.0000000180025095e-35 0.096085000000000018 -0.11677999999999998 -0.095499999999999988 0.11530500000000002 0.086365000000000011 -0.0068399999999999989 -0.016814999999999997 0.091275000000000009 -0.013929999999999998 -0.0083599999999999976 0.085955000000000018 0.12518000000000004 -0.069494999999999987 0.13148500000000005 -0.073884999999999992 -0.071879999999999986 0.11915500000000002
decision_type=2 2 2 2 2 2 2 2 2 2 2 2 2 2 2 2 2 2 2 2 2 2 2 2 2 2 2 2
left_child=2 5 12 -4 26 -2 13 -8 9 20 11 14 -1 15 -10 -5 -9 -18 22 -20 -7 -14 -15 25 -25 -11 -3 -13
right_child=1 4 3 6 -6 8 7 16 10 23 -12 27 21 18 -16 -17 17 -19 19 -21 -22 -23 -24 24 -26 -27 -28 -29
leaf_value=-0.074728924971784322 -0.16586515667969803 -0.23127783335561422 0.25734809311499451 0.18979069342780475 0.071365577533454683 -0.0063513959001574964 0.16813616448769181 0.039770184077685705 0.053022764962847725 0.23993884194377238 0.23668698625911369 -0.084981357591076556 0.22691966720700685 -0.20098386240292737 0.21509587898575744 -0.13360738645587661 0.011305743580701133 -0.18561894289520928 -0.15226201685488719 0.37440738609451252 0.16508915888695291 0.07883365558735525 -0.0030346031451339087 0.17247223971316014 0.24660612123924558 0.28963584396463105 -0.34642431533515866 -0.046905222500388977
leaf_weight=10.990003507584332 6.1266791298985472 5.2167090103030223 11.53043709695339 5.9775146655738336 17.282139353454113 13.830221228301527 13.819644428789614 15.660942621529101 22.127216689288616 53.312969148159027 27.036240205168724 14.022614900022747 17.836861472576857 79.171883586794138 28.075480218976736 6.4154330156743526 8.2376342639327067 23.097216982394457 21.918421652168039 3.269024930894374 12.433927003294228 16.999047376215458 2.9488789103925219 34.69674015045166 41.072321653366089 18.19210522249341 4.8804201558232307 11.921380162239073
leaf_count=56 38 59 20 41 48 63 34 46 103 122 59 52 56 1255 68 64 29 133 320 22 30 70 32 88 92 47 37 38
internal_value=0 0.146084 -0.0482238 -0.0835085 -0.0607711 0.166108 -0.105281 -0.0205139 0.173458 0.208247 0.114946 0.0717205 0.0996459 -0.148347 0.143662 0.0223734 -0.0759898 -0.133848 -0.168064 -0.0839042 0.0748097 0.154659 -0.193876 0.232044 0.212659 0.252583 -0.28694 -0.0674874
internal_weight=0 310.227 237.873 192.047 27.3793 282.848 180.517 60.8154 276.721 173.538 103.183 76.1467 45.8259 119.701 50.2027 12.3929 46.9958 31.3349 107.308 25.1874 26.2641 34.8359 82.1208 147.274 75.7691 71.5051 10.0971 25.944
internal_count=3122 944 2178 1996 144 800 1976 242 762 442 320 261 182 1734 171 105 208 162 1629 342 93 126 1287 349 180 169 96 90
is_linear=0
shrinkage=0.202172


Tree=9
num_leaves=30
num_cat=0
split_feature=12 4 13 42 484 160 50 4 52 133 133 147 3 133 49 129 133 1452 52 49 4 12 43 13 49 3 13 3 42
split_gain=77.2493 41.4737 31.0918 23.6029 26.4861 23.7168 19.4472 17.2639 17.1208 17.4438 9.60154 7.09069 8.35256 5.10086 4.26377 2.92626 6.74079 2.86705 2.37661 1.41432 1.18594 0.594119 0.542037 0.362033 0.150544 0.12897 0.104093 0.0782856 0.0272697
threshold=0.040165000000000006 0.29587000000000002 -0.0016149999999999999 -1.0000000180025095e-35 -1.0000000180025095e-35 -0.090834999999999985 0.083315000000000014 -0.16125999999999999 -0.53299999999999992 0.18936500000000003 -1.0000000180025095e-35 0.089090000000000016 -0.047104999999999994 -0.0089749999999999986 -0.006494999999999999 0.092795000000000016 0.092240000000000003 0.10077000000000001 0.10955000000000002 -0.0098949999999999975 0.11069500000000002 -0.095439999999999983 -1.0000000180025095e-35 -0.072764999999999982 -0.0062099999999999994 0.31395500000000004 -0.094374999999999987 -0.063644999999999993 0.085790000000000019
decision_type=2 2 2 2 2 2 2 2 2 2 2 2 2 2 2 2 2 2 2 2 2 2 2 2 2 2 2 2 2
left_child=2 3 10 15 17 13 7 -4 28 -10 -1 12 -9 -6 -14 19 -17 22 21 -2 27 -12 26 25 -15 -23 -5 -21 -7
right_child=1 -3 6 4 5 8 -8 11 9 -11 18 -13 14 24 -16 16 -18 -19 -20 20 -22 23 -24 -25 -26 -27 -28 -29 -30
leaf_value=0.059193724669181311 -0.34553413737976613 0.17997566403121845 -0.10673594620989664 -0.2557569115550587 0.0073940752883116271 -0.24318681415397961 -0.17571436459176998 0.21743084559208126 0.094999785975372814 -0.21922662108180896 0.19568029934982401 0.22426817067814322 -0.010346475850169831 -0.27538710555423462 0.097089621124901909 -0.23473951867187651 0.18760806538911512 -0.025803825057091317 0.1432400006969507 -0.2190997651002875 -0.087504344560776673 0.23233690682392685 -0.29954935953456946 0.210691865037931 -0.23110094449293628 0.25339170494164454 -0.21741065115169747 -0.25146054629847592 -0.21929437224435319
leaf_weight=20.107738997787237 3.5334159173071376 31.974874004721642 17.164784122258425 3.6940265670418801 4.1880935393273857 4.8870227895677072 13.579982325434683 15.846277043223379 89.177425567060709 7.8571275137364855 28.262200884521008 18.919144004583359 25.57710349932313 4.2620547004044118 36.851354114711285 4.154520694166421 2.4585538804531097 2.7976153530180445 18.88372640311718 26.116779763251543 2.9042140804231158 35.825226232409477 5.2751164138317099 27.132734730839729 12.100877918303008 17.941643834114075 13.741570342332126 3.4922818504273918 3.3867099955677986
leaf_count=79 23 74 82 29 45 63 55 38 618 145 76 45 79 41 122 80 29 31 50 493 21 93 40 78 192 40 272 37 52
internal_value=0 -0.033367 0.126029 -0.0685252 -0.0310908 0.00698141 0.0530202 0.0801828 0.0457515 0.0695555 0.189076 0.113194 0.0863462 -0.191683 0.0530719 -0.201351 -0.0777141 -0.218943 0.209472 -0.224031 -0.210825 0.220929 -0.242732 0.229748 -0.24264 0.239364 -0.225539 -0.222919 -0.233414
internal_weight=0 226.002 276.092 194.027 151.368 125.859 127.939 114.359 105.308 97.0346 148.153 97.1939 78.2747 20.551 62.4285 42.6598 6.61307 25.5083 128.046 36.0467 32.5133 109.162 22.7107 80.8996 16.3629 53.7669 17.4356 29.6091 8.27373
internal_count=3122 2285 837 2211 1528 1156 421 366 878 763 416 284 239 278 201 683 109 372 337 574 551 287 341 211 233 133 301 530 115
is_linear=0
shrinkage=0.202172


Tree=10
num_leaves=33
num_cat=0
split_feature=12 16 13 0 15 13 457 3 133 52 43 43 52 0 52 52 43 13 12 0 43 3 457 15 3 15 40 12 12 13 3 52
split_gain=56.3279 36.4921 25.5248 18.9789 15.2498 10.9764 15.657 10.2148 9.25996 8.85287 10.4126 8.85046 9.02862 8.2961 8.78225 8.86236 7.38244 8.4672 6.93946 17.8542 6.44858 6.43652 4.9062 3.46198 2.24011 1.8823 1.76303 1.44883 0.505248 0.231343 0.115399 0.0419952
threshold=0.040165000000000006 -0.15352499999999997 -0.00027999999999999998 -0.044489999999999995 0.029300000000000003 0.0060550000000000005 0.082870000000000013 0.090445000000000011 -1.0000000180025095e-35 -0.060344999999999996 -0.078654999999999989 -0.073434999999999986 -0.101225 -0.088174999999999989 1.0000000180025095e-35 0.10932500000000002 -0.084699999999999984 -0.065239999999999979 0.091545000000000015 -0.077944999999999987 -0.11187999999999999 -0.078884999999999997 0.081330000000000013 -0.020659999999999994 0.11180500000000002 -1.0000000180025095e-35 0.0073350000000000004 0.10070000000000001 0.11742500000000002 -0.072309999999999985 -0.10547499999999999 -0.039514999999999995
decision_type=2 2 2 2 2 2 2 2 2 2 2 2 2 2 2 2 2 2 2 2 2 2 2 2 2 2 2 2 2 2 2 2
left_child=2 13 8 9 5 6 7 -4 -1 10 22 -12 -13 14 -2 -16 -5 -18 19 21 -7 -11 25 26 -9 -3 29 -19 30 31 -20 -10
right_child=1 3 4 16 -6 20 -8 24 23 18 11 12 -14 -15 15 -17 17 27 28 -21 -22 -23 -24 -25 -26 -27 -28 -29 -30 -31 -32 -33
leaf_value=0.046375596607252614 0.1138579255595497 -0.2311935491564544 0.075030460749487909 0.15833137121758295 -0.15757914008368457 0.067589634106641081 0.1565197986552557 -0.18487055033681771 0.22567097864162711 -0.17461907539707608 0.35194542618970598 -0.16978224560464356 0.11605429754049898 0.21115926766863027 0.097620403505314368 -0.26047523979340359 0.12778986234109849 -0.24185255976355166 -0.25917294085106263 0.32322278062424176 0.24279142307106694 0.084324461374828574 0.040515841192605248 0.12695689894068818 -0.070842772004057974 -0.066772860939499246 0.14847287890844707 -0.083641303126275934 -0.30791584404451372 0.20750176953439287 -0.22158636330912476 0.23749940284179602
leaf_weight=19.981250405311584 26.723377570509911 13.402626181021336 19.100587509572506 15.150381207466127 13.537437126040457 15.63774426281452 24.880400151014328 11.376263819634916 19.126007959246635 38.449386144056916 3.3857195302844074 7.7636465635150715 10.800084479153153 20.040051057934761 5.1681596562266332 6.2297187522053719 7.2575732916593578 4.7155765518546087 3.9536651074886384 3.5564080774784079 19.046872437000275 4.3691636323928824 4.5277798362076274 23.538769900798798 18.489604711532593 3.61441962607205 14.007245890796183 4.7508770450949669 3.6169161051511756 19.079182296991348 22.26658346131444 35.780773907899857
leaf_count=80 81 221 73 49 58 50 66 60 60 768 32 87 55 59 34 61 18 58 52 38 48 82 28 69 64 34 45 31 40 64 457 100
internal_value=0 -0.0302919 0.111328 -0.0825286 0.0447498 0.0699874 0.0259233 -0.0404332 0.173124 -0.119443 -0.0466633 0.051339 -0.00348417 0.105847 0.0504835 -0.0980986 0.0561053 -0.0364986 -0.160978 -0.112042 0.163802 -0.148195 -0.146509 0.195831 -0.114279 -0.196274 0.214254 -0.162458 -0.237036 0.226708 -0.227256 0.23338
internal_weight=0 209.742 253.582 151.581 122.069 108.531 73.8469 48.9665 131.513 119.706 43.4943 21.9495 18.5637 58.1613 38.1213 11.3979 31.8744 16.724 76.2121 46.375 34.6846 42.8185 21.5448 111.532 29.8659 17.017 87.9932 9.46645 29.8372 73.986 26.2202 54.9068
internal_count=3122 2285 837 2050 419 361 263 197 418 1894 457 174 142 235 176 95 156 107 1437 888 98 850 283 338 124 255 269 89 549 224 509 160
is_linear=0
shrinkage=0.202172


Tree=11
num_leaves=33
num_cat=0
split_feature=1 47 484 403 52 51 403 157 1 43 4 43 157 42 133 52 402 1 4 48 51 48 48 4 4 41 43 52 52 51 43 133
split_gain=62.919 23.3109 21.9366 23.6285 20.4942 14.2519 13.6848 14.7648 12.6475 10.9955 9.75231 15.0269 8.71363 5.60822 5.58261 5.24944 3.83183 3.57528 3.35073 3.13718 1.28689 1.24192 0.812421 0.807948 0.528079 0.424669 0.387703 0.101944 0.0761752 0.0278467 0.00678192 0.000527817
threshold=0.10100500000000003 0.087850000000000025 -0.0048899999999999994 -1.0000000180025095e-35 0.19121000000000002 -0.097124999999999989 0.09389500000000002 -0.084489999999999996 0.12374000000000002 -0.043449999999999996 -0.035939999999999993 -0.055534999999999994 -0.08107499999999998 -0.073109999999999994 -0.16936499999999996 0.12591500000000003 0.10089500000000001 0.08869500000000001 -0.16251999999999997 0.084795000000000023 0.10328000000000001 0.091690000000000008 0.091095000000000023 0.26858000000000004 -0.33762999999999993 0.080335000000000018 -1.0000000180025095e-35 0.34407000000000004 -0.26577499999999993 0.030935000000000004 -0.091329999999999981 0.077945
decision_type=2 2 2 2 2 2 2 2 2 2 2 2 2 2 2 2 2 2 2 2 2 2 2 2 2 2 2 2 2 2 2 2
left_child=2 10 17 12 5 13 7 -7 9 -3 11 -2 -4 -5 -8 20 21 26 -13 24 22 25 23 -12 -6 -14 29 -26 -15 30 -1 -32
right_child=1 8 3 4 19 6 14 -9 -10 -11 15 18 16 28 -16 -17 -18 -19 -20 -21 -22 -23 -24 -25 27 -27 -28 -29 -30 -31 31 -33
leaf_value=-0.22448767972495032 0.21107478966934545 0.021173111644715997 0.18248958695665218 0.033961703776112261 -0.34289379099947437 -0.1978607783594509 0.073319672482328554 0.099541091955730882 0.095588942378088071 -0.26538515018262154 0.17568690576697926 -0.21611752865615141 -0.22440839711318833 -0.23140385375727163 -0.238549849790225 0.0671592048544771 -0.012824970505856322 -0.056325126000085449 -0.0086520802217253442 -0.020740196408061542 0.13202020803545939 -0.066784065264281656 0.15404531750807812 0.21878590497627409 -0.26163372810062446 -0.29828034730210917 -0.27513264204409543 -0.21765403332809305 -0.26964483501158004 -0.23920017297664098 -0.21525515172559068 -0.21007225640933733
leaf_weight=2.4997336640954035 11.165403366088869 11.472875162959101 2.7117978241294614 4.1252596341073504 2.2658262103795996 7.2420000303536645 3.2952691894024602 117.93199417553842 24.612299509346485 10.465142823755739 23.833055164664984 6.234992653131485 20.967735199257742 3.9239006303250781 8.1421411074697954 14.963142588734625 4.0693862289190283 5.2703163400292388 6.4993549063801748 2.91910496354103 12.216625079512594 1.9196591712534417 13.068871691823004 70.183311283588409 3.4463021717965585 3.7566016092896453 8.7064173892140388 5.8480810690671206 4.7528871446847907 2.4531482942402372 2.6003508567810059 5.0966093018651009
leaf_count=42 34 66 18 34 13 86 41 647 85 50 80 67 524 59 134 54 54 46 29 30 37 25 49 238 46 25 70 137 37 41 62 162
internal_value=0 0.121851 -0.0332173 -0.00997297 0.0216214 0.0438772 0.0629919 0.0823343 -0.00390129 -0.115522 0.158862 0.0398707 -0.16489 -0.160092 -0.148691 0.180043 -0.195564 -0.205469 -0.110236 -0.208034 0.194201 -0.223472 0.201294 0.207861 -0.255323 -0.235635 -0.242272 -0.233968 -0.252358 -0.21965 -0.21494 -0.211831
internal_weight=0 204.715 223.945 197.318 163.893 149.413 136.611 125.174 46.5503 21.938 158.165 23.8998 33.4252 12.802 11.4374 134.265 30.7134 26.6266 12.7343 14.4793 119.302 26.644 107.085 94.0164 11.5602 24.7243 21.3563 9.29438 8.67679 12.6498 10.1967 7.69696
internal_count=3122 789 2333 1910 1264 1038 908 733 201 116 588 130 646 130 175 458 628 423 96 226 404 574 367 318 196 549 377 183 96 307 266 224
is_linear=0
shrinkage=0.202172


Tree=12
num_leaves=31
num_cat=0
split_feature=12 484 1212 43 123 47 160 133 403 15 0 43 0 159 157 43 52 49 43 15 0 15 49 15 12 15 47 12 0 133
split_gain=37.4634 20.4342 17.4814 14.9758 13.7212 14.7978 13.1615 13.6148 13.6924 11.6472 9.49895 9.82243 8.07372 4.57163 4.46051 3.43581 4.80216 3.34984 2.54413 2.80494 0.729003 0.243086 0.174507 0.100993 0.0443888 0.0142051 0.00811641 0.00618628 0.0030578 0.00183577
threshold=0.040165000000000006 -1.0000000180025095e-35 -1.0000000180025095e-35 -0.15817999999999996 1.0000000180025095e-35 0.077735000000000012 -0.096069999999999989 -0.39018999999999998 -0.092224999999999988 0.029300000000000003 -0.077944999999999987 -0.24698999999999996 -0.10470499999999998 0.10473 -0.076719999999999983 -0.11228499999999998 -0.0037699999999999995 -0.056454999999999991 -0.040589999999999994 -0.03157999999999999 -0.063109999999999986 -0.057039999999999993 -0.09410499999999998 -0.15449999999999997 0.11589000000000001 0.08351500000000002 0.11043500000000002 0.083715000000000026 -0.086869999999999989 0.048695000000000009
decision_type=2 2 2 2 2 2 2 2 2 2 2 2 2 2 2 2 2 2 2 2 2 2 2 2 2 2 2 2 2 2
left_child=4 17 24 10 5 9 13 21 -9 14 11 -4 -7 22 -1 -16 -17 -2 19 23 26 -8 -5 -6 25 -3 27 -19 -27 -29
right_child=1 2 3 6 18 12 7 8 -10 -11 -12 -13 -14 -15 15 16 -18 20 -20 -21 -22 -23 -24 -25 -26 28 -28 29 -30 -31
leaf_value=0.20833737873043984 0.039186848794223593 -0.23305215684209929 -0.18972233309144518 -0.29405800131010301 0.21022673029326686 -0.1523107174540862 -0.31531105951443161 -0.19726079201725005 0.056064838793685019 -0.071212376152438819 0.25250959915523041 0.1939904262865183 0.054595760108761361 0.057974704134290157 -0.0012269160025922114 0.063279744804783655 0.16751090263732998 -0.2243154309883002 0.10200184657061329 0.11751629352565873 -0.30933658729637264 -0.23553911300719549 -0.2277049600183704 0.23018029536310777 -0.25099406283337622 -0.22296639572625723 -0.22890255559700831 -0.21456242391007613 -0.21288100217585415 -0.20815248466323866
leaf_weight=20.318379711359739 1.9558429792523409 2.9353090133517963 5.2426916938275117 1.928938079625367 19.202653795480725 16.732121709734205 2.9873044639825821 9.5971364099532348 95.517270917072892 14.302883468568323 16.631595097482204 5.6820147149264812 14.292954456061123 2.577840741723775 11.246015869081019 33.884308334439993 38.709070272743702 2.1263386551290777 15.398095518350599 14.341169506311415 4.5490494426339838 3.2933153416961423 10.369533861055968 22.843707323074344 2.5745438970625392 2.1138605494052163 1.8448607958853251 5.438240757212041 4.8948418330401191 4.3815106600522995
leaf_count=58 16 38 66 13 82 72 33 254 872 59 63 29 50 20 44 139 152 39 55 45 36 64 240 81 24 37 23 133 124 174
internal_value=0 -0.0207896 0.00257661 0.0212736 0.102192 0.0673039 -0.00819441 0.0156578 0.0329352 0.099857 0.156307 0.00984422 -0.0569891 -0.186805 0.123349 0.102751 0.11886 -0.212303 0.174843 0.194733 -0.239126 -0.273492 -0.238117 0.221069 -0.227167 -0.220991 -0.215961 -0.213958 -0.215932 -0.211709
internal_weight=0 186.642 166.346 153.828 221.271 149.486 126.271 111.395 105.114 118.461 27.5563 10.9247 31.0251 14.8763 104.158 83.8394 72.5934 20.2958 71.7856 56.3875 18.34 6.28062 12.2985 42.0464 12.5186 9.94401 13.791 11.9461 7.0087 9.81975
internal_count=3135 2298 1877 1654 837 574 1496 1223 1126 452 158 95 122 273 393 335 291 421 263 208 405 97 253 163 223 199 369 346 161 307
is_linear=0
shrinkage=0.202172


Tree=13
num_leaves=33
num_cat=0
split_feature=1 123 160 52 48 15 0 48 0 15 15 0 376 48 16 16 52 457 43 133 42 16 15 15 457 43 1 52 0 51 0 16
split_gain=43.9122 17.0867 14.9748 14.9544 15.1764 15.3425 14.8646 14.2838 23.6881 17.4801 15.5975 9.78588 8.8757 8.2442 7.63966 6.33842 11.1318 5.81089 4.77881 4.74664 4.66547 3.09855 2.55457 1.59968 0.721858 0.334192 0.311179 0.251805 0.0190705 0.00558758 0.00149724 0.000245831
threshold=0.088975000000000012 1.0000000180025095e-35 -0.40187499999999993 -0.42985499999999993 0.11978500000000002 0.088585000000000011 -0.11045499999999998 0.091545000000000015 -0.091204999999999981 -1.0000000180025095e-35 0.085235000000000019 -0.13338499999999998 0.076485000000000011 0.099460000000000007 -0.28430999999999995 -0.095494999999999983 0.048565000000000004 0.084715000000000013 -0.19537999999999997 -0.085989999999999983 -0.09547499999999999 -0.25747499999999995 -0.10364499999999999 -0.024209999999999999 0.079020000000000021 -0.053569999999999993 0.081925000000000012 0.086285000000000014 -0.096359999999999987 -0.017084999999999999 -0.061784999999999993 0.55665500000000012
decision_type=2 2 2 2 2 2 2 2 2 2 2 2 2 2 2 2 2 2 2 2 2 2 2 2 2 2 2 2 2 2 2 2
left_child=7 2 -2 29 5 14 -7 9 -9 15 11 -11 19 -10 -5 16 22 24 -12 -13 -20 -22 -1 25 26 28 -17 -18 -3 31 -30 -4
right_child=1 23 3 4 -6 6 -8 8 13 10 18 12 -14 -15 -16 17 27 -19 20 -21 21 -23 -24 -25 -26 -27 -28 -29 30 -31 -32 -33
leaf_value=-0.042382829127241235 -0.2978922055371977 0.22796542688775534 -0.21702491122401121 0.20769705738071315 -0.077275886657370257 0.18628136599617165 -0.24402567564652625 -0.2786161615891824 0.43613452830980864 0.23356397893915168 0.063184370207497648 0.13959111342444758 0.24126262180603125 0.12417739225614355 0.099796209284890011 -0.22690193480162393 -0.31223429856300061 -0.069507271039385615 0.15722875654057919 -0.054694134025113209 -0.045937229489100569 -0.22316066606848209 0.14858715524672644 0.12911268588840119 -0.35280676547016826 0.17893667038264205 -0.2832237750509945 -0.23103100888943937 0.21595424029731144 -0.22656874967813659 0.22011952754310679 -0.21108190497557597
